[[-0.002373082599664874, 0.0049044898367609354, 0.008623396470869939, 0.00629412804772379, 0.006591093907763899, 0.006806152145859853, 0.015444511379559227, -0.0035726089358909057, -0.013607732703472802, -0.0021439523138748217, 0.0009687002637230853, -0.0005076889444022157, -0.012251148404453625, -0.0020763461661909262, 0.004568480730417658, -0.011136016187328679, 0.007770057232194898, 0.006196835649346444, 9.928216042517463e-05, -0.0036514655076954577, -0.0018057767425941843, -0.0010086890482387811, -0.007642571010061464, 0.0007264002384230819, -0.007690870226163931, -0.004238385675368824, 0.0013798222372058645, 0.003409398217568947, 0.01103083019442823, -0.010234131701807552, -0.006435440961721634, -0.004392109026539876, 0.0015882071980341098, 0.0015680549287574606, 0.010561479312807919, -0.009235371407014513, 0.0011730498854189196, 0.016508012500839254, 0.0036336657410229434, 0.009288023708145425, -0.015128360178076611, -0.01538589836515213, -0.04113515300791949, -0.11509900270434356, 0.014319729859931267, 0.009405883674876856, 0.002673863780656297, 0.004129840462439461, 0.016479150339857702, 0.015557117614777103, -0.006720270021756566, 0.01076192054061732, -0.0063216164132904274, -0.01758072709280732, 0.0071932302417331275, -0.003550660858220416, 0.006579908661674414, -0.0005545316668812338, 2.5134481833324186e-05, 0.008168089934664618, 0.007672126509949314, 0.015216523765834515, -0.011088869322028537, 0.010199275591454893, 0.01924034689012369, 0.02206551244297156, 0.04725212639037092, 0.05691520131055771, 0.020222927689327923, -0.11859502599566746, -0.024843370291842925, -0.3111009945569951, -0.2215329744881503, 0.05544004195210074, 0.059749827587272486, 0.005183310439965632, -0.00765461575617421, -0.015088717509285811, -0.005959712575414637, -0.00010809218407348059, -0.014436935427838827, 0.005867977218398319, -0.004724702840420038, 0.014385553757401264, -0.008869241051137495, -0.014272628616074689, 0.004550526742310678, -0.005463762071883894, 0.004985136330995234, -0.005534126968411414, 0.006164494093171796, 0.022793954912436454, 0.05399211901343337, 0.16241690622292848, 0.3098450656434994, 0.46498182140608374, 0.22525947634921273, 0.11343173664322845, 0.13980843368564286, -0.09346688220413929, -0.13467193066311678, 0.039600730386762005, 0.008010164625056276, -0.09221169995099177, -0.05836143133475434, 0.002713200015876443, 0.04158044028130282, 0.03235290472477455, 0.003325024194112496, -0.0018593542159801896, -0.003334291665866523, -0.004509004553010663, -0.007676183887351404, 0.015788339048333593, -0.01286094581514869, 0.003841445784246752, 0.0066540903099775416, 0.024937728916680255, 0.03634137633925837, 0.06543802913126683, 0.0014053839144318042, 0.15117384093428876, 0.3852235796346807, 0.5591655448183103, 0.3971671403861715, -0.10777078993178787, 0.16254687540518228, 0.117046600567171, 0.027068880157338382, 0.07085655674782752, 0.018496901072626328, 0.0549173154916779, 0.024036132367455946, -0.04647988607046543, -0.00986966765649784, -0.0326237732284845, 0.12244098616119359, 0.054129604012341646, 0.02589354567779526, -0.0020483021859414347, 0.009257987496915532, -0.0017702327311265712, 0.02164808638615898, -0.014363863712460774, -0.020649785456392386, -0.08767305790754425, -0.09974235018031237, 0.06501509355638195, 0.2605665408568894, 0.4171832477735445, 0.4436342321384477, 0.49970092471359173, 0.2705597525825553, 0.05691523101449281, 0.27451171466475954, -0.1400465110439726, 0.489729667880447, 0.42278801105756647, 0.17774919705181322, 0.3317812604450464, 0.20567649993133658, 0.011205454513408599, 0.0484972636196594, -0.13129224148871263, -0.013318949276827485, 0.08984677164469199, 0.013093020006810467, 0.00019006050767255716, 0.010926123722069714, 0.008309893274194634, 0.02969730911277275, -0.024295812600473362, 0.03285792909131636, 0.1227255577697138, 0.19637395048455558, 0.41641896998117467, 0.3682138187913192, 0.38611508953172474, 0.19986347642416694, 0.2378848561166002, 0.2014808369343233, 0.10294265431066171, -0.057801489036193525, 0.11973369301223993, -0.09487001674253448, 0.01113955346552033, -0.12867524386108495, 0.11987004370365598, -0.1304579757963171, -0.01583415089851695, -0.011700542042176607, 0.013067679940663626, 0.0778322291261225, 0.11293376238690475, 0.016051194585328728, 0.024203523309937185, -0.004900092414001318, 0.029540779440506322, 0.03219808690998568, 0.033579893014239824, 0.08481923785851223, 0.3132820039947972, 0.48223209968040115, 0.41855840552465046, 0.47301256002588327, 0.37307104683012504, 0.20382496656822902, 0.14450469831677973, -0.0077415449824149805, 0.12654195335542087, -0.20053118408217768, 0.30961231215300933, -0.09949479366557448, 0.2566492129106262, 0.25280702599411936, -0.06423656010532328, -0.0857640141832836, -0.13271004338591835, -0.18528697583605797, 0.029497842260274045, 0.2540588094512217, 0.15419914710812072, 0.02261574239056324, 0.0024485332141357414, 0.0014442639559502928, -0.00626748485250716, 0.03336147775186798, 0.013895662189543608, 0.12486836028679733, 0.2879972692130912, 0.3777407004290175, 0.42450421241903546, 0.4885143710357872, 0.2433409021263218, 0.13718095652047513, 0.07724459532214423, 0.08379799008636481, 0.17664163877674158, 0.1093233429681837, 0.29320924635276824, 0.5080133950684528, -0.02795447193923771, 0.19966009762209025, 0.038031239336728036, 0.27033123632429645, 0.0638858160444337, -0.022151869766908534, 0.2906150418412376, 0.31942904160217456, 0.09830120487161635, 0.012298451076816177, 0.005862190705786165, 0.0017121951482318386, 0.011591216684673946, 0.029209171030042187, 0.04695868186922342, 0.1819565469182027, 0.25558637040872506, 0.2641420705995145, 0.32190983693286124, 0.18975235282018593, 0.23757704083647654, -0.11129552949311379, -0.2728479537185222, 0.07832613872594506, 0.08924491921896682, -0.04901587696306361, -0.01678247907117178, 0.0309577264528021, 0.23629634953137452, 0.24383293593955194, 0.17928071956505268, 0.46661749296852867, 0.16723601713026978, 0.11622916835194966, 0.3197319013380746, 0.22673176699597142, 0.0991774232931535, 0.04193538905591395, 0.006898329657560512, -0.0008543776456095221, -0.009266573665024374, 0.030145158943886287, 0.08641803102771771, 0.2161598198035676, 0.22457044301659834, 0.33076926105265403, 0.3150379612457359, 0.04878060595806815, 0.28198201259113476, 0.0456119108150015, -0.030267128124898374, -0.13587653673807515, -0.18023274867856712, -0.5416701487466729, -0.43593849802363743, -0.12833189490273322, 0.06669085227512543, 0.3753073717681954, 0.25452480948142514, 0.6053446181556401, 0.3479089382611435, 0.22410974201303363, 0.1984007569884772, 0.120746917046457, 0.01853797187387802, 0.012255682093894868, 0.006415149877115755, 0.0035982790841677078, -0.005030839410263688, -0.0006896418355335021, 0.10275547114439058, 0.201697547357333, 0.20593564878087925, 0.30116640214740753, 0.3640403093710344, 0.30955253374176045, 0.32412253971133703, -0.07716313068296779, 0.09998661827980704, -0.2618004964063571, -0.3745927318665806, -0.647997744709857, -0.6777697138709255, -0.2711204264723616, 0.04250025913029573, 0.23294691854908822, 0.4732428147780625, 0.38417989543519887, 0.28495050669050154, 0.18167048339023412, 0.12853315214473943, 0.13735455889117065, 0.03203018617046989, 0.05071488791923773, 0.007217163521256032, 0.011656258662406424, -0.0019652927203129356, 0.008984716852453181, 0.07747621146174447, 0.11356177351552572, 0.2407439044964213, 0.13768450943327037, 0.2633261754299693, 0.3033722924045861, 0.10587559992051783, -0.12409767480368229, -0.3215471917633277, -0.6259788107767438, -0.6024566702472566, -0.5882172677831822, -0.6935303431359109, -0.42859060073211724, -0.1804675687608596, 0.021896439302701402, 0.6067932061783854, 0.5379250092550032, 0.17712576267031027, 0.16242839089255925, 0.00555279668763805, 0.031687339017356375, 0.08145784952563408, 0.09191508672802019, -0.015851554058974825, -0.0034851639537159347, 0.005027534171914879, 0.03694186768757664, 0.00958909136570685, 0.07601503857812232, 0.19915253778546177, 0.16706312740449183, 0.19015740811337817, 0.1481995261870298, 0.16938772260287577, 0.016514556016757567, -0.12416373649482912, -0.2116721700286415, -0.16128146901063306, -0.17769122971267798, -0.3738723462049383, -0.43541273952549725, -0.4805068526284853, 0.31265236048452355, 0.5766589566536201, 0.45799939912031284, 0.24210526140874933, 0.22423448405542026, 0.21053038649814718, 0.17896729175115683, 0.09807771787384943, 0.0483667203857511, 0.020926350715346712, -0.020734823814646478, -0.0005204519773325883, 0.009138087195225084, 0.004568915988354369, 0.056097939811336935, 0.14939050876661034, 0.22680014683165292, 0.2445099212261995, 0.1867682161029355, 0.1941196825962634, -0.048211092870045075, 0.10010725888202801, 0.0034163725204429097, 0.12832950628374665, -0.0433530332133445, -0.08997260324722699, -0.2924686129464888, -0.09038725736992839, 0.20209539372813126, 0.5228836874753439, 0.3682694542628466, 0.2580931657202898, 0.1952774996051843, 0.19955460298330985, 0.05429138537395663, 0.033655507630900014, 0.029011791561969768, 2.9032809318583314e-05, 0.01806465703361808, -0.011893346286263514, -0.022001964260494607, -0.012169330193209938, -0.04798393239980104, 0.043706320083615746, 0.1566269685504253, 0.2574078199834651, 0.12459300834438516, 0.08599849300694234, -0.05903577402193189, -0.00973767551283444, 0.14522648375824423, 0.06206482270365521, 0.02692510695702858, 0.01253483391552058, -0.5900281363448021, -0.004180545809047603, 0.5419929108255189, 0.5565485655282159, 0.2639477251586503, 0.07949465506137426, 0.10763744416209184, 0.08526385048856087, 0.06727158907391295, 0.04767324548390435, 0.02761528182660199, -0.002120346309432418, -0.008842992326666261, -0.005642236477068344, 0.0028931547671931946, 0.0024203883808280235, -0.09361848163910705, -0.12732583627345798, 0.08997469196586493, 0.1909397598893203, 0.2023922214254853, 0.2555835627998154, 0.0652158587492258, -0.30423101526910235, 0.05963809283627717, -0.03210564378007103, 0.05767865718744301, -0.06028724693326161, -0.2114464368274711, 0.5203657476838845, 0.6884770737346075, 0.5039153296490761, 0.22144130568283127, 0.13763197127613655, 0.14335088863074752, 0.0447745238746494, -0.027806454576366074, 0.03623325347000254, 0.030292079061776785, 0.018689402114563446, -0.007662957681204905, 0.007748171435676056, 0.025253097959846628, -0.011052989281471944, -0.0659218262915415, -0.06867856690735884, 0.09872249176365043, 0.171792117100631, 0.3289424051659169, 0.30789702943535374, 0.17541046123287296, 0.22865612842073457, 0.10912230982684487, -0.02232379535348447, -0.1846061867050106, -0.04981505554812121, 0.31264210329825176, 0.7909761442663996, 0.4866756533887351, 0.3763147937362081, 0.2945409690724318, 0.26097547725833264, 0.0749717084324805, -0.020901181922802818, -0.05611357518107863, -0.00181410293880035, 0.02021642074515176, 0.023732683613787973, -0.0077616059591436555, -0.004005746131482883, 0.007205200038157667, -0.002214726158534496, -0.013629629095437468, 0.06433688208808375, 0.2674495674042733, 0.31070724002575717, 0.26450280000032683, 0.0789887078403884, 0.2674344252684325, 0.10761300253489722, -0.1972191006684714, -0.1467247830979747, -0.38176735951889723, -0.06032010682549111, 0.4971549542633112, 0.4144209275188396, 0.003738758367821369, 0.0637692349860494, -0.07725963129325397, 0.0061445485324610844, 0.06166104603716587, 0.042348635227064384, -0.021117795430621047, -0.06547654715418796, -0.0017779717182790356, -0.017531496734989667, -0.004091474199719867, -0.00416741403132992, 0.0022092810725576634, 0.02060280737827791, 0.03165682086868803, 0.2805710544546412, 0.2450322454379252, 0.25454330981129564, 0.3515218519848803, 0.13198911293602975, 0.212206274235096, -0.13356698583597765, -0.11165442280668411, -0.17920770729595745, -0.0028876230835176986, 0.1376921403270215, 0.04813405490432013, 0.36826553967907577, 0.15390894341916814, -0.008749949497587341, -0.03427176903559013, 0.1139371178885733, 0.23092781215395938, 0.11603667568986412, -0.06812960823960175, -0.0982677812772873, 0.008255099218045778, 0.002326996392580499, 0.003735201804572392, 0.0026736355536361835, 0.019466365701965818, 0.07226431802192941, 0.05484620479797498, 0.2195735632167697, 0.16312526631552518, 0.1835885884995163, -0.026727761411432897, 0.10453876626280748, 0.077957639536082, -0.12665937363634877, -0.164087350800346, 0.23455459705327222, 0.011988241828779304, 0.40648296947660906, -0.040644346386127586, -0.005469044455367131, -0.07364476542132499, -0.14449791343825208, 0.022324442419557708, 0.1489967880450671, 0.3592416824380092, 0.20933991525148588, -0.0969497420881684, -0.05932858641421493, 0.005398805224142174, -0.00595107450080703, -0.006388715409982539, 0.011848667748643273, 0.029292053623153763, 0.001762621616813285, -0.09183966794971074, -0.17851069447600607, -0.03355720089148089, -0.04300249375554855, -0.23671146518737424, -0.047121803992552315, -0.1253644215208314, 0.017903977050312016, -0.1409986360526673, 0.3306193983129655, 0.21811091959505557, -0.01402966302251956, 0.09384244020935556, 0.0022999637022645195, -0.11941109893286536, 0.05030496325039332, -0.19611533955938656, -0.10369342784044336, 0.32722535144007253, 0.25492162522558404, 0.04724672494444076, -0.018495540925257927, -0.007806004247113268, 0.0018423849303035001, -0.004413360513192352, 0.001283583203818154, 0.009230960616530252, -0.00509333263928813, -0.07385526404073806, -0.3987994551330415, -0.27924148472375665, -0.02809178054274949, -0.25511923943104986, -0.048966458371832645, 0.09160894260519573, 0.29019362907989626, 0.45426486281772344, 0.3839979458847186, 0.09008356450423209, 0.04337883729728815, 0.18685763611807918, -0.1452137566973152, -0.23484463101664807, 0.04425911102957642, -0.17967162106553677, -0.011852118646398041, 0.2621715727200696, 0.1602399200484855, 0.03790256704402199, 0.018480054065703817, -0.0017641001042958712, 0.013866869162477685, 0.012263347329011558, -0.016843915230864464, -0.004352138954789304, 0.019172193162658537, 0.0869726313849523, -0.1916166309452151, -0.2079106500876648, -0.0027580837398369085, 0.04141197238114802, 0.2894967533781482, 0.15606668816582878, 0.3232247477123876, 0.029971399382593925, 0.2507660836598146, 0.35448089340145716, 0.2716269864531329, 0.15916398327023837, -0.27220477842501684, -0.01604868940137028, 0.0021406365994188488, -0.01326406584695329, 0.15594560272279223, 0.19606703291748115, 0.08344164101970311, 0.009634796407972076, -0.0014189078699373735, 0.0013551047389963428, 0.007276456238252367, 0.0016173201715013242, -0.01144689868930515, 0.018932476471178995, 0.015881165324287023, 0.03274018315675078, -0.0032842083768613024, 0.04255276596281378, 0.0598481422124772, 0.013442779922176948, 0.14546019433686536, 0.06195065283349282, 0.2900026827544991, 0.29701587604913415, 0.3257535151030924, 0.18228741916028615, 0.40346248111162286, 0.36301190705811087, 0.16539258192805034, -0.1342587520599045, -0.1522016155464868, 0.009311730458225649, 0.02317560459930762, 0.08789094830264141, -0.0022371859595463352, 0.011257538903291996, 0.0047671490262730775, -0.013193562590195084, -0.0012929725978298194, 0.005420088128682687, -0.010197506051107252, 0.0006003024324840146, 0.022507104312933186, 0.01680672269362013, 6.877211997317573e-05, 0.10712188013052514, 0.0763490319959649, -0.12891270450203068, 0.10065133297880684, 0.32379073055463276, 0.11930098270770075, 0.2196070877323302, 0.06893237767849554, 0.1897168442229045, 0.5727388109035061, 0.4067291160047708, 0.2644665092804935, 0.2545492455305439, 0.2186729617784216, 0.09253546729955577, 0.027197940775405747, -0.01542937550524576, -0.014353190065247705, 0.00429599808870206, -0.006257262261396024, -0.0017378547586331715, 0.011168733328633893, -0.006013905716005849, -0.01264802757858417, 0.008096079311907266, 0.0036429477298607392, -0.014807021864006927, 0.013080533078556196, 0.05341832015196589, 0.050652867546916704, 0.08833241663418502, 0.053078212384350974, 0.11423062671148851, 0.09728355626087946, 0.09158901389377243, 0.2609995703722937, 0.19405550015605808, 0.0483187735030552, -0.03499579101664049, 0.05579092419718069, 0.06397958221038438, 0.08727137335708306, 0.03213187322727331, 0.023858165885934517, 0.005452063556209818, 0.012212771370492129, 0.005973492558477936, 0.00341835189159797, 0.006116763565891551, -0.009534147788711814, 0.011382269273615847, 0.0019801119540989315, 0.00046350329414720115, 0.0028849547584450367, 0.006262248972456696, 0.02564839961277647, -0.004719133653821133, 0.009544114264837577, 0.012422581952480659, 0.007783806911105588, 0.0010328937012018735, 0.010151973162925272, 0.01721862741778726, 0.024413544529659947, -0.020204894451298156, -0.061546292588195065, -0.013475882592697582, -0.0059010484082569715, -0.04914292450987309, 0.008105917625947624, 0.013500951717292322, -0.007173981904560236, 0.004617983971731797, -0.022021686480497744, -0.015482180502029876, -0.009198246866765104, 0.0044835419789942075, 0.002534895377091713], [-0.0004307466106463841, 0.0034984877433144727, 0.002342236186991066, -0.0025126934760172767, -0.019266226397524115, -0.0030620795705880053, -0.001836380582611126, 0.0027641717019826614, 0.002349741710197446, -0.00996994945859174, 0.00846127239532158, 0.0015893807237677404, 0.0019313865288117247, -0.004099082718859316, 0.012229489356035649, -0.005098605700756817, 0.006616432819124399, -0.01014629488404857, 0.015286065547731431, 0.005620722474193261, -0.004270568166121674, 0.0006035224307026962, 0.0039627119730670625, 0.0023094274175277265, 0.014625145264910476, -0.006724754904546397, -0.014604433181172783, 0.011453263898774964, -0.009568535414258466, -0.01521615255103649, -0.010344677217701407, -0.008402716178991786, -0.02400226975027456, 3.866420857403616e-05, -0.01615368740805821, -0.022289183039747272, -0.00386227353684379, 0.03278197626242714, 0.02187996158410165, 0.02170044404272091, -0.0060800025593826445, 0.0015918563179581418, 0.010989478275005855, 0.008024153222342739, -0.02349626568958734, -0.01662917615013055, -0.005363621526870632, 0.011597083749449472, 0.016557458740246413, -0.007278313453152879, 0.01691128541361289, -0.01392550073680982, 0.0008983888053159199, -0.004203347972416631, -0.007654365513587783, 0.0006279509300167583, -0.009467396286648689, -0.006547180741605615, 0.01148796855748989, 0.002732344988797332, -0.004604274229260784, -0.014899604033507216, 0.006220140588226743, -0.021596946685277778, -0.014031355786540979, -0.040144157386521856, -0.01594550996204298, 0.030462077500060313, 0.09931371731178625, 0.16198817806855978, 0.16052011826628232, 0.14606421032879122, 0.09981093848494936, 0.057406236659396266, 0.03609298922327788, 0.03142903277342926, 0.012366547377687106, 0.003035370149426823, 0.01624257439869231, -0.01887139828152454, -0.012485908162134296, -0.0026853181242817666, -0.01294237150222801, -0.01192520880185554, -0.00838344598287714, -0.017034894204006834, 0.01787304736941126, -0.000767258717889866, -0.0009460256324794168, -0.018948370865439674, -0.03503042022609235, -0.07041363795532397, -0.12144550532677878, -0.10923403517117339, 0.005253870936591656, 0.054451309398487795, 0.22357613070856797, 0.44401182037826653, 0.4546111798528669, 0.35459176713977564, 0.23337568339594206, 0.1641519604149632, 0.16477679749132682, 0.1621040073471014, 0.1437651276139823, 0.09566712114756866, 0.08351600023180979, 0.024053855784046726, 0.016805889491101046, -0.003766873404717506, -0.0033441204384295695, -0.013902975666314269, -0.004744594197926666, -0.007610885171112942, 0.005977250062604405, -0.0029592380139369023, -0.005495415928619423, -0.07071143596067495, -0.12382714619797502, -0.12549215868057403, -0.11816492968289324, -0.016466743625692563, 0.08771160080202804, -0.021720806853704866, 0.0904209884168968, 0.38966454379860094, 0.5335347769230875, 0.6199166157229092, 0.6478388105046513, 0.6478228985317965, 0.6253381041512639, 0.6167733545797975, 0.47951452354720525, 0.3320084657229432, 0.16789225615591746, 0.09497772605422115, 0.026141584355365916, 0.0038538156404538584, -0.0036764295712015892, -0.01012436863429975, 0.010236157236102333, -0.0009133018716635553, 0.017476240360066654, -0.027137437843401287, -0.04643810206476055, -0.09005265504265168, -0.05042156698930663, -0.09082772717574587, -0.08200290436534646, -0.02889375751678191, -0.016892426206847715, -0.17926573577356222, -0.06779492764912373, -0.09055758295339851, 0.11691607336791413, 0.20618851771076172, 0.8453492684362891, 1.0149342278431295, 0.7849738081521467, 0.5004841133547452, 0.5003262476401283, 0.4159782025418933, 0.2752170960438754, 0.264099057113257, 0.12908442719345053, 0.045978449808395994, -0.0034960098012805814, 0.0029964136625044197, 0.004440653525255739, -0.006362033699769299, -0.02118022831535165, -0.0782003808955848, -0.04212787415213737, 0.04621469552046627, -0.05790272824133405, 0.027430621378640798, -0.04231402155056123, -0.32518012616341335, -0.5064928565335166, -0.6545435347818898, -0.3054367319695861, -0.34092432774268877, -0.1696558765471008, 0.1044406229614415, -0.13832661876688984, -0.28727704757767264, -0.08387290498356288, 0.013879425469509378, 0.07685781348594824, 0.03519394326431569, 0.34600190421522026, 0.42019519927295007, 0.28750923880774193, 0.07881455572041535, 0.04837623981367829, -0.0031888169626975733, -0.006768772253646271, 0.007240963282512193, -0.04511751093687103, -0.11266453667018739, 0.05158638282710067, 0.1953726777654436, -0.13873100178839967, -0.0066170864362774095, -0.24646109232598626, -0.3129861204201534, -0.36661392432768186, -0.3047622295519153, -0.45929266834759613, -0.47160463300008143, -0.11137318859788038, -0.36334998856405865, -0.5393334940390899, -0.6727334830600246, -0.533202442070035, -0.13290725649372878, -0.356880219081999, -0.1473428547376974, 0.19107060018619923, 0.10258038516324658, 0.10783711776868547, 0.14176228060909377, 0.08456821656840267, -0.0022655344174577277, -0.0026090997423830306, -0.011299129856230874, -0.008218765701445344, -0.06328998781252643, 0.10362828456444705, 0.03502877053582447, -0.13131736573205, -0.08888175665090343, -0.3918350290452236, -0.029422780097375357, -0.13622430225957727, -0.23226883729041692, -0.3477203034572681, -0.18258206019038076, -0.19451004380041836, -0.1985270417692521, -0.5694862416813646, -0.5014569366728571, -0.15106775122179025, 0.059424179438934244, 0.1066513627766938, 0.11824253941373154, 0.1066761366901732, -0.07842623671313144, 0.10337688847609915, 0.2031929568447691, 0.03868220529143828, -0.004675377432214083, -0.005943312124434249, -0.02243302357469258, 0.0009587790047176237, -0.10418160803464978, -0.08479407253304411, -0.2748236040243671, -0.46865981993991607, -0.09805848315013806, 0.012862890906325515, -0.21394355373088775, -0.3987204123435567, -0.08053262183997967, -0.37938502808953967, -0.6677011996698552, -0.6932150972573251, -0.4418507820839421, -0.14409763838247996, -0.2936882300523614, 0.35428773177455836, 0.3829370209796486, 0.024432520330061897, 0.10606261760137002, -0.04277074680673453, -0.28340525628534696, -0.009318208333792807, 0.15168777314115184, 0.013478864930218142, -0.019207297620399664, -0.0005844607078429468, -0.0220819006966279, 0.007034054943847761, -0.18457205653654618, -0.16297216169853815, -0.3221605876148409, -0.4864176814813269, -0.17136536588939213, 0.061549491791206654, 0.03180011647426149, -0.2603501103953306, -0.1550556730878258, -0.23624470500919423, -0.4921243460319264, -0.7079452168539295, -0.2930583574623556, -0.49344501136273516, 0.05282967914768367, 0.286359107501596, 0.2582411738434585, -0.246766849932318, -0.023394590018245655, -0.2216971862986233, -0.20119522115612015, 0.0190029139345674, 0.12529740335352926, 0.03421307500564649, -0.009635076357404957, 0.0005890387239925132, -0.013933539252891676, -0.07185514754072514, -0.19729672326322756, -0.27292101541516794, -0.2722013915624285, -0.26009791118307185, -0.3020135057404988, -0.26893133500544725, -0.34126886032870946, -0.2541778822017608, -0.4969907133108068, -0.005781828466447801, -0.4955313861852191, -0.5020973229885578, 0.15184365214425613, 0.13765019754435287, -0.3078484644101231, -0.2509762173797921, -0.10660666635308048, -0.28467226576490307, 0.06504373010651193, -0.2971020074829396, -0.24127516536124188, -0.3308453786927884, -0.0647676217649798, -0.03257264787967329, -0.014530911906981244, 0.00876386511826804, -0.018523923179477507, -0.09550582021031984, -0.25514007312161496, -0.4196032237226422, -0.26557438451673776, -0.08779878141871535, -0.17922041845455966, -0.24505941303521211, -0.24619761502611853, 0.18283037962133117, 0.2879419234030924, 0.545310390612335, 0.37064582453167244, 0.058332681901333464, 0.405622502057653, -0.006156070220175764, -0.37300270267099567, -0.08164757413891874, 0.02716491537637235, -0.10271679966590343, -0.02194797773028441, -0.25508954394393996, -0.3366150537421113, -0.31651640311109064, -0.20106091293585582, -0.08304040972799547, -0.028314792979824917, 0.005747362587772479, -0.01958511744611364, -0.08381762959881771, -0.2294340665594752, -0.40143206343937204, -0.015427830741839305, 0.15219858305365208, 0.15725532945842513, 0.29987053471929603, 0.2058271348797284, 0.3246209584708398, 0.13391991010619397, 0.5088234924081648, 0.017365996236948143, -0.13651626869170413, 0.16766303679118733, -0.14153305879270814, -0.20730065428503855, 0.06675742056521969, 0.1568166884201554, -0.05711040006434979, -0.05160568372017894, -0.010416390271362666, -0.021445337353817026, -0.26756431718493384, -0.21336282360787312, -0.11850335943654706, -0.04184356949559647, -0.010053503385085493, -0.009923987591275487, -0.03650923352791756, -0.08638185238816212, -0.18138145652247925, 0.2629903041608236, 0.13522488305160002, 0.40491183602602326, 0.30033242831811846, 0.29642734908979995, 0.4486706732878951, 0.29429773617731136, 0.30743032628266437, 0.15496714330982614, 0.2201961222467283, 0.17530773960002785, -0.03114287793350656, 0.023882774396224184, -0.12556572230705412, -0.07073387664440879, -0.09252738124732778, 0.10960104834254841, 0.005606441119643528, -0.12274991181882329, -0.005617943410542173, -0.12267197817133896, -0.1392914926923932, -0.015832264740781064, 0.009665087768272074, 0.005341948146087698, 0.0077525645431398196, 0.08598074946415976, 0.025202157180667845, 0.004395267534790406, 0.2313269480925398, 0.3608144165981604, 0.1794676445619672, 0.16296216746655665, 0.22409228481010518, 0.0428439018278611, 0.19700921338661576, 0.2968924966326707, 0.5145902054696712, 0.2649550809947125, 0.02628998708872539, -0.3487786429257901, 0.03402367515695565, -0.23172329999002872, -0.12163307460077476, 0.13243013417458405, -0.08561608095845037, -0.023896661631926875, -0.1311599914224173, -0.14361646181786508, -0.17411022065375295, -0.0014016803725571164, -0.00516769446534407, 0.010594363408088529, -0.007333823482511968, 0.10682947547716382, -0.07626405362028282, 0.01949500228314635, 0.15735857287385513, -0.008568980394171083, -0.12213272719535453, -0.016995049981952358, -0.03426477526042551, 0.036194291699801186, 0.19231362622305267, 0.27367366183152075, 0.5531665445649542, 0.2670916934497683, -0.1752027436444877, 0.17382826573627902, -0.07375803923647152, -0.2448374243015218, -0.1487193200115369, -0.0557486659526631, -0.32583220154241127, -0.06941243140242657, -0.036741042281525076, -0.1626206572165348, -0.15027409865807564, -0.014633596819003478, 0.01491975171350227, -0.005049524545575192, 0.002716462039741731, 0.05076191018292396, 0.0639778046039467, 0.18006125650274857, 0.17610245268016186, -0.05561026098178247, -0.23329789615707458, -0.21024546976710765, 0.11930553819200408, 0.07418144527685942, -0.1516845194598099, -0.124604627435828, 0.07737862361385704, 0.18030768076801043, 0.3592306078867057, 0.14814435104764595, 0.16940157877449635, -0.15264441049655567, -0.07669771681103951, -0.1716484674954743, -0.20511153702645973, -0.052037250076040396, -0.15587667191466245, -0.1902931217708956, -0.08746724282246623, 0.004254785689109008, -0.005680732603206546, -0.009649160456283005, -0.008310296076487741, 0.0854031915298027, 0.21301205080792687, 0.2749899220137412, -0.0197668691049575, 0.0700982099076515, 0.030316805451528046, 0.1135152461875539, -0.0035389451737163407, 0.14621995636013854, 0.48581311317278636, 0.14470337721184087, 0.20866894156469645, 0.20619371493571018, 0.33611063481618536, -0.15027629400320316, -0.040856703825528584, -0.003912461624037681, -0.009166090543637808, -0.1549733195319715, -0.27135875308495855, 0.05805401863239575, -0.09669187249686322, -0.08830280857870076, -0.0497381166530102, -0.004187017585274136, -0.005943704614851852, 0.003297216531513625, 0.05085368457729297, 0.12557350177293589, 0.19091171380328906, 0.09685178556164334, 0.0033966930434478344, -0.06019936693774345, -0.015904130894114753, 0.1818395639234599, 0.13857577432425663, 0.2771546794221447, 0.0363903978536948, 0.23873136859077704, 0.36047800922914947, 0.5113885961880258, 0.2179094162826201, -0.044835144506952446, 0.15721469492642787, -0.2054856701018229, 0.15574431325808122, -0.021622429471020777, -0.17634934413390585, 0.025676622190906336, -0.05500343542521654, -0.08950344998096185, -0.03019110813915073, -0.005218203254368411, 0.010295971482222707, 0.0033818087406067266, 0.030032211165045404, 0.027180448605980567, 0.0955639613625102, -0.024682222184939737, 0.026143039794556608, 0.054367588409357244, 0.06290935363837866, 0.11070871200869414, 0.06394593657594479, 0.3728221111074642, 0.4230175266976082, 0.07827422719271603, 0.17035360833650035, 0.1884413355473617, 0.255600787348365, 0.3592977700803455, 0.49304862287469137, -0.09283131149785769, 0.11310211092845081, 0.24490776293206706, 0.19205035338999532, 0.05820127892647289, 0.015420809707261084, -0.06849102049505151, -0.006924431194156186, -0.007237462398315497, -0.004205969145224062, -0.008950287880456506, 0.0006647014864879377, -0.03985206602342071, -0.008167350812165172, -0.06014713383333014, 0.05009980820632627, 0.04692992137183547, -0.10748567945993302, 0.04469813685521699, 0.07401936657111499, 0.13965500635596154, 0.2030202644748869, 0.3917682820010331, 0.39538757012564724, 0.09042057595858133, -0.009724699092659493, 0.3797057910972405, 0.4282687503417441, 0.09602537980696803, 0.26775601649354014, 0.5403562800560234, 0.40484966258400257, 0.20094193392443452, 0.02344140803236609, 0.009346796498984837, -0.01686936419128601, -0.00984462621214204, -0.005708195108188243, -0.005019930529936762, 0.004239587191322079, 0.010857622203163114, 0.05071840549660184, -0.05119000503815171, -0.15490769605068466, -0.23440897951162507, -0.2767783519068137, -0.09047978667528303, 0.04346485224308584, 0.2531259934398694, 0.10825250835369124, 0.32168200465876695, 0.1612330708633723, 0.11032632936058079, 0.2826529067902775, 0.4408162447805382, 0.3485418919825511, 0.4195503977521579, 0.4024988141758837, 0.5870112633500604, 0.2413848419137605, 0.045998998804439424, 0.006197459636527249, 0.034474505423938914, 0.015222990194218784, -0.010703721352002536, -0.001357019712934614, -0.010944617024883054, 0.01795007800883154, 0.015979453731427135, 0.13073030169818411, 0.05205245717223296, -0.2976447459401047, -0.44414604775171357, -0.3129634564049005, -0.10165525275117376, -0.020784061263805588, 0.03279597665383878, -0.07093074111580469, -0.08046071419073439, 0.1465629003922296, -0.05701743951866356, 0.4479966871210877, 0.09665573146610637, 0.10778759649328222, 0.29011940748925985, 0.44848450600144957, 0.2326648112487612, -0.0061749035539201205, 0.03234100093440777, -0.06911480178038155, -0.0011748319586242886, 0.01957899114615312, 0.013285043655137935, 0.005036954748214128, -0.010641353551298015, -0.004135905163786864, 0.0077039974778832, -0.054329825994501875, -0.09088161446249261, -0.22296095686581902, -0.32072566169432043, -0.3469821867353025, -0.25316227287737303, -0.5013494579653631, -0.36987996919537863, -0.19515575288308012, -0.15930417422195656, -0.0806474534508038, 0.1617220229767851, 0.3291975612767039, -0.0006108091561811213, 0.14521420084751263, 0.11581929172106865, -0.10729874077861636, -0.09215902631912136, -0.0898727799908939, -0.08146068577267185, -0.026038713063409262, 0.029645951539056747, 0.003033975150729633, 0.015901225334366505, 0.013713976734026821, 0.0020755449331015118, 0.01657839311916599, -0.009026618177256683, -0.08354270792098295, -0.1026765866731001, -0.18471620270872174, -0.30020620353018906, -0.4032975197141461, -0.4476705403683445, -0.638149653608314, -0.6185827807215962, -0.6984979083150088, -0.5612652149986319, -0.5454999103436978, -0.26650962682369334, -0.5488858825177668, -0.4210862458100017, -0.27300351016444074, -0.4423420056406996, -0.24411814836178694, -0.10867510101383675, -0.061458119108976285, -0.0009012085070788044, 0.010467395591622231, 0.015262940877615786, 0.00753065780532465, 0.007188461519335426, -0.001230673244890896, 0.01836183165589848, 0.0012675813825355337, 0.00386204877796254, -0.0037153330378077876, -0.036374886601169755, -0.09901315139969448, -0.1389774678874292, -0.18205382992743308, -0.28975920027059965, -0.41098119010644524, -0.31041341319834187, -0.35482741667630785, -0.4476172989169232, -0.5473910594658771, -0.36844839469796314, -0.388343787811586, -0.528451353068933, -0.46226332632967454, -0.31289772007087263, -0.1829642505152558, -0.15443160044220977, -0.07147254301984794, -0.005636785651607766, 0.006388213783012123, 0.022409571729905185, -0.008293991886402162, -0.012163476162053637, 0.005437174787664842, 0.003332025214607509, 0.0012046134445210133, 0.010548761529676463, -0.014819091111093806, 0.004867172287061211, -0.008651245894629322, -0.01857969418966176, -0.05639615001876255, -0.028230010336793714, -0.06904454151768077, -0.038818219872708976, -0.03824817255909086, -0.027906653265264803, -0.07227227652048349, -0.0267875323186997, -0.03077157988513441, -0.03743349749739403, -0.08640923630966178, -0.03926161878703195, -0.01095715349163037, -0.046877204170681606, -0.049940707691414774, -0.00042941464629482514, -0.007766582664153836, 0.005123249058999965, 0.011340029200118014, 0.009750542631985154], [-0.01980858643588162, -0.006746295300928963, 0.015734866504115718, -0.008866811484559582, 0.005537418452243168, 0.007701242933565771, -0.000604482627215909, 0.007791249410937833, -0.023714438958285865, 0.005554958114200169, -0.016129917194545134, 0.01310268956766176, -0.005116577254771332, -0.013335998238968196, 0.005040401804721787, -0.01370197261811677, 0.0071436704996515644, 0.009086168408619862, -0.0008819952213399843, 0.0010181742933282846, -0.003109463344704116, -0.00624939335899923, -0.004419153509056765, 0.0033726333152771745, 0.0035320693907426107, 0.01932562193384056, -8.980931446953415e-05, 0.012868920629930771, 0.010917562436397603, -0.008676816097313224, -0.018752128635717822, -0.011705761112234508, -0.0051999528219566485, -0.002078907951093894, 0.00626200757871203, -0.011907576715242606, -0.011499145992013106, -0.018893959834994246, -0.009580903559187243, 0.003511180504728355, 0.016361995490877298, 0.024546077256343033, 0.019292393702322073, 0.05218954355703719, 0.09082446287217713, 0.019128518494146988, -0.012970841314318356, -0.008392649422799273, -0.0037722965562981404, 0.009319330576399233, 0.0027912787320914603, 0.012609787715978314, -0.006559584400614502, 0.014230211180865893, 0.0045648172315888545, 0.014062343267835805, -0.011585594955962904, 0.007483864347425739, 0.003188377249966374, 0.025401722310685795, 0.005467730572781187, 0.010138693663349732, -0.0005990799882652961, -0.01885011843485084, -0.021767194453894995, -0.034298617976678505, -0.0441420656581129, -0.045450192683487864, 0.03156615827099636, 0.13438227398442573, 0.21780434941561053, 0.15432399155515544, 0.09493060944028214, 0.07729500927685591, -0.07679505293515354, -0.043152923636097566, 0.003239960533595108, 0.0019002509480804312, -0.017218731981943455, 0.015402376960782919, 0.00119388871733273, -0.012668803755332395, -0.003397901302580689, 0.006711811252132881, 0.007738813094463294, -0.004280330458750562, -0.006736262402137023, -0.007098768380869799, -0.018882728093208324, -0.0221208004350129, 0.0067811229748276965, 0.011340272041732739, 0.03034259418778342, 0.14441331579312938, 0.11653706158616103, 0.1368714112832917, 0.28261312327598204, 0.4298402148772981, 0.49769300101935204, 0.3302417531489093, 0.40754771456662603, 0.3528143365018598, 0.008743495536823317, 0.009467960846690833, 0.09652658872529296, -0.0015418841670973523, -0.13783382133470976, -0.10547131984448117, -0.03579664052686, 0.03215412570599069, -0.008340513521906531, 0.006040756964535617, -0.009386644729356311, 0.00282080796816362, -0.003213243897047783, 0.01960872830863123, -0.005226839072998066, 0.033708626852117014, 0.1630236015318379, 0.21590402072805687, 0.3716220168198264, 0.3510791584601671, 0.1725595030030812, 0.25958697897291194, 0.3730142612624579, 0.6088097795133227, 0.32576338449863546, 0.4643585295295204, 0.30707203029192776, 0.36609177615915045, 0.10546179550515948, 0.020675892359692433, 0.058290627830309624, -0.12023757824089934, -0.22794198027462506, -0.33464789003639783, -0.12172221623397966, -0.000948647924194593, 0.007994121985299456, -0.014799577558619985, -0.019308716693690886, -0.0048300680734778825, 0.005318002684493346, 0.019365160655754065, -0.0070603134185474575, 0.09921400165965952, 0.1834340201329679, 0.23251432760122298, 0.09154437503119839, -6.598862064685321e-05, 0.2274305908391135, 0.1838706562358475, 0.04898691366900608, 0.5142283665512811, 0.402073772435736, 0.4487188826183331, 0.2794764181656014, 0.1577830477110839, 0.2276397521860645, -0.022524425010505996, 0.01649387096976421, -0.0031936481258093845, -0.18418505362297075, -0.3235025717395569, -0.1380887850228055, -0.024662673868802342, -0.021734453332885553, -0.023202635532481, 0.00999046184639956, 0.011149395341459634, 0.013009459177978806, 0.0383630400166243, -0.049787635533472596, -0.026765962070994406, 0.001190767492593277, -0.1382971907616135, -0.12281942409929533, -0.12244408103248224, -0.0909290270423742, 0.11106934670716959, -0.1462495715648558, 0.3346878202930057, 0.5252077551178974, 0.34931529737541833, 0.3041445774971538, 0.05924769025124978, 0.6892986191424774, 0.18062343475062523, 0.0067874311139051995, 0.019261821645266883, -0.2927521707739814, -0.41168619622259434, -0.44932429752113295, -0.09446522587857548, -0.027228397193141993, -0.007219194699038326, -0.011496173738102699, -0.006614564103888315, 0.05243327679054792, -0.007818892236210125, -0.08340414979066081, -0.14183519759344212, -0.09594312623259295, -0.3177569773197151, -0.1994655844907075, -0.2853985950791219, -0.220903032440922, -0.2824054413719719, -0.14541023239318657, 0.026150808668342074, 0.4131744015375616, 0.5537650629341452, 0.6676114387931708, 0.22542085499892095, 0.11011637564318374, 0.08491404809846885, 0.015879133193851435, -0.009657565949441064, 0.0228008431689989, -0.38889077806676947, -0.6402819900525782, -0.13251600083205414, -0.06331134931467157, -0.029518720942489526, 2.3889847240729665e-05, -0.0060793616192800284, 0.015310734795635139, -0.05223256477069479, -0.15333852618474397, -0.1783018820533119, -0.15339104814136512, -0.5244916262342214, -0.5112710634142293, -0.5612523830268621, -0.43863435482354324, -0.33226325207282953, -0.5249662349294363, -0.7048458431880961, 0.043956619765474964, 1.0054370681299931, 0.9933010930702608, 0.5157511867308548, 0.15735744641454555, 0.21298555839351763, 0.28215964365300417, 0.3500475026283078, 0.18512698203814038, -0.4056962683986156, -0.7102940536912252, -0.27705089212168305, -0.03778739524913617, -0.005885657446077038, -0.007183569131638673, -0.008168182039311911, 0.0031693098509792926, -0.026120877275234957, -0.13128144023073107, -0.05408114802516176, -0.2869614351391247, -0.3617973934586155, -0.31590486979107757, -0.2425219373789936, -0.013108492829913143, -0.249733242416052, -0.12612464629126738, -0.463874377860823, -0.312233284594337, 0.4950094469900621, 0.8351420792330548, 0.883845188096932, 0.7926211031513937, 0.5454169336384094, 0.3998140020283195, 0.14529280802275524, 0.14470178164941694, -0.09378974838697, -0.5190475484881807, -0.3415097946259011, -0.07602954571121111, 0.003922843048597981, -0.007757458450230076, -0.0066402837162450766, 0.03783860638601352, 0.049709197626891286, -0.053997390424745335, -0.04084008256326626, -0.0635685741992206, -0.18221934476518817, -0.1422029411937233, -0.1748889305680636, -0.2908321362769241, 0.06978077545149837, 0.04042865550985044, -0.47822773850275396, -0.7190469025261829, -0.3875982327786285, 0.39383960886686054, 0.6039261908513117, 0.7363317748253091, 0.48872352061436963, 0.20988406664631126, 0.3383297609466219, 0.573460227956053, 0.14241027139489143, -0.5063847454749053, -0.2189181422818027, -0.08434352021176215, -0.003503334191254096, 0.00725912802375305, 0.02171366716607083, 0.028226356393540784, 0.08591007083294575, 0.14093164045493403, -0.03069007478600569, -0.049606023077140474, 0.11891745271029612, 0.19888119848058589, -0.15346294594632173, 0.056873941103501045, 0.06709788852140444, -0.09964527433545028, -0.33967339926519274, -0.46342074583481896, -0.494520963447671, -0.5709705627312928, 0.03376903242159302, 0.2960412711077588, 0.43599822455769227, 0.6197587858554556, 0.3838267967575096, 0.7011435938843357, 0.34298714738373987, -0.11671461023539437, -0.14171790196558084, -0.036053140272080696, 0.01607479370056268, -0.003576630513429952, 0.008968288893347581, 0.0054263126325089185, 0.1281201916485801, 0.3303578385125056, -0.018161972641268023, -0.2891328988707136, -0.00959828804869979, -0.07540505128214468, -0.1822695891207027, 0.03694723841833812, -0.5667531148587893, -0.20932099089651646, -0.5980204668895094, -0.3169637166726403, -0.198092265194527, -0.24782139330407413, -0.03927728641911278, 0.09977415190641012, 0.4041868620463631, 0.3495571299266816, 0.13431509659828234, 0.5069919866173012, 0.20477436119113002, -0.036537828606414594, -0.07450619561242967, -0.019829323213850617, -0.005732147764159429, 0.002773391522442095, 0.007775258598082824, 0.00633135104728137, 0.10711203990265415, 0.5016274117909314, 0.045671742956846985, -0.2631644944392513, -0.033840232184696596, 0.1802466387272403, 0.005406559391331821, 0.12157327003227814, -0.34997957875162355, -0.1858638014242116, -0.362264687392231, -0.18282397223334115, -0.28494488217218616, -0.000396838066867029, 0.05879900450378513, 0.1195686697691615, 0.2726534713754587, 0.06058438686954121, 0.17660507639941686, 0.04618990062562317, -0.1441265618760684, -0.10522709251680684, -0.1330483569286514, 0.0018235590041320124, 0.010010480867727755, -0.01034912563436207, -0.011717436412955003, 0.014365096669970554, 0.027151008904140742, 0.3934263528100957, 0.19950585329878265, 0.15509450601981747, 0.2581834598122585, 0.25438336503561026, -0.03458536848696639, -0.1683491829642004, -0.14042063938604113, -0.16817305716600542, -0.25401967468453573, -0.18596428896152914, -0.2824885884605968, -0.22581737539370547, -0.0966089809871637, 0.20448928223543253, 0.2223940878244313, 0.11440868553050085, 0.3515958196791607, -0.06182939235742294, -0.19759291922047534, -0.2520051115896654, -0.19748898214864924, 0.027635045531754696, 0.011339998911797983, -0.015115563394270984, 0.0027799279050057827, 0.0007210498105807238, -0.08505741972017916, 0.2880740956388089, 0.37849769724386684, 0.13144766752850653, -0.1955315173689833, -0.21135596355271893, -0.44619252181564056, -0.20531351411607507, -0.20949771763408195, -0.15511410611724324, -0.1382117444277673, -0.4972320364348585, -0.11931937688028095, 0.052405355885141544, -0.018558613353979483, 0.10138874907581989, 0.12993379398906588, -0.030385389164917277, -0.023053286612952174, -0.08586521110554257, -0.2287220051639035, -0.12493439724782937, -0.08902851411783737, 0.032023153272253135, 0.015253969544462294, -0.0016353034466198887, -0.009719262788881453, 0.010430394140138315, -0.07579603614494254, 0.15389967908359925, 0.2565804242233525, 0.13789727530812215, -0.15907616260506519, -0.2501807292869687, -0.1801766787938286, 0.13013107252494674, -0.3220467138913836, -0.19822931638564786, -0.32729832059057695, -0.36231249560596934, -0.24291004001718716, -0.03589415924236182, -0.002933618285899547, -0.000210133579557007, -0.19073103252232532, -0.10654369055728917, -0.08575221146617065, 0.0013148367713450703, -0.27388955965125816, -0.12898523309854654, -0.0023248235870536186, 0.0274517929324656, 0.007545307329499376, 0.008423090973602254, -0.004321187555780152, 0.005132876037952496, 0.005400585973459044, 0.04972982845377621, 0.04475687393878817, 0.007613379767706727, -0.08290284463608008, 0.044137920725390474, -0.2631727371720218, -0.1866122382739745, -0.10975177598421673, -0.008774016051409504, -0.19173671433223383, -0.4139025437335062, -0.15020408726322212, -0.1253743862214455, -0.029982199172330287, -0.06489365927413468, -0.08585328527544951, -0.40426825091025176, -0.20357115603626552, -0.17075175379936022, -0.34639323433171976, -0.08781296611320787, 0.11917561570690832, 0.05703726485733347, 0.008946397035667339, -0.005459743472040823, -0.002757793882743642, -0.0012035920602164547, 0.03707333093113602, 0.018196300427521444, 0.11230712512786735, -0.056111872972535864, -0.1917439097379199, -0.025992593623291996, -0.2740880522730482, -0.06306370591781127, -0.09479594554420322, -0.3931105021665093, -0.19335654558526694, -0.12375064643429601, 0.1514291031344954, -0.21535819419177316, -0.1472922148444081, -0.017389247318242936, -0.279169850680152, -0.16841044848483716, -0.10263297007197641, 0.1402830011840219, -0.023736784274289144, 0.1469769952936057, 0.20782909520044607, 0.05859034249903785, 0.027980855384620706, 0.00797754429209639, 0.013811876154272967, 0.0042121941936782755, -0.043465066376246024, -0.01965184223107021, -0.029300650020542978, -0.027373032242163725, 0.07982652103531084, -0.05651264641298212, -0.13288022955920617, -0.19605572523849044, -0.12109241513359363, 0.3147271698395439, 0.3416371837579252, 0.20478582791130517, 0.03613748737687506, -0.07026318859370946, 0.11409379822531579, 0.18156368412068752, 0.025207415533874247, 0.09216550308888354, -0.003087906843977351, 0.02843574599256565, 0.1130850337017504, 0.1222561836152056, 0.12844562883129282, 0.04217127457117751, 0.002920521116105347, 0.011562985644817829, 0.00884669614170818, -0.015252870622666623, 0.038320075063875005, 0.1057437336450131, 0.14596989443445257, 0.12932850321776873, 0.09784906335170755, -0.041142199866468894, -0.06683433650326577, -0.049514685073693644, -0.06903324145851873, -0.18440551709030237, 0.07317782386006395, 0.2523458416381046, -0.20305239877712378, 0.196749665283208, 0.12766866035006588, 0.11757553470652556, 0.029206175930963117, -0.02791926170651178, 0.14705956269284942, 0.09819710219705527, 0.15631889970835403, 0.19320222052274885, 0.05894375193255624, 0.023071009019261488, -0.023166455763933502, -0.00813644881363114, 0.011190837891981794, 0.010323452888478779, 0.028831561520897084, 0.023349578774981068, 0.012318551931247748, 0.003023317007683202, -0.06272273933934981, -0.18942737910818555, -0.20262841671995335, 0.14349526681236238, -0.1370572329394004, -0.11507681797375442, 0.022533226446611265, -0.18009487787216522, -0.09125626024254828, 0.19902788534653967, -0.17427676452349564, 0.05634376437260557, 0.16829396680191397, -0.23761245975156192, 0.07379196663222967, 0.10108483787918378, 0.24848640453749524, 0.15437323293642766, 0.10689435329807058, 0.011864860054158818, 0.003659403010923549, -0.004555629915346408, 0.005633103984305451, 0.02099399764091848, 0.06539933515492215, 0.08560661062023714, 0.0945642814712498, 0.1733891434437357, -0.031619275323664056, 0.16253732416929575, 0.04970819191683264, 0.02478294943246362, -0.14335870280470603, -0.048093813280608154, 0.04861858111818593, -0.1258245992820531, 0.004054170952785445, 0.02415105510212738, -0.22731503850016055, 0.13416401240623418, -0.114175093309643, -0.038283342557670345, 0.09594206748744653, 0.10628649831204309, 0.06706100818764149, 0.12470759044738162, 0.05872594125631604, -0.010664817770826196, 0.001198273949231274, -0.014723231813156448, 0.009263408093102988, -0.011901312401408426, 0.09256431754906035, 0.1696751071817233, 0.1242303596815321, 0.01013541578885873, 0.07709679123984202, -0.05709405144789836, -0.15244918005236602, 0.13310612045279915, 0.24422632344139988, 0.10991118668882321, 0.08767536333708793, -0.17210586205757447, -0.01585110647985692, -0.014100674777151368, 0.08529548177045844, 0.19376669113805034, 0.07842657194116372, -0.07356854516335917, 0.00347616645401381, 0.13149893109663424, 0.007893056264999808, 0.07915137163231348, 0.039055808447014055, -0.011092496095213606, 0.006954233180162845, -0.006314417179375992, -0.008506948578821184, 0.008844397432577221, 0.06376887212867137, 0.15363882985968336, 0.20341620312831998, 0.1649559429312432, 0.32067795997125315, 0.023799738980409643, -0.19860697711180814, 0.13042106580470017, 0.0496117448982064, 0.013017607829432681, -0.05224662775790894, -0.06267000733097003, -0.04639137625487397, -0.15242452697268333, 0.01159903738258949, -0.02693934099260359, -0.046590387835062114, 0.0097028037355407, 0.04501840274102312, 0.10061864729365447, 0.026322227686489875, 0.05899922002426243, 0.05210820523718163, 0.007145921826220105, -0.007065485584624634, -0.009450995192834401, -0.009323081929294751, -0.0009306374448614658, -0.015395659959236776, 0.016141317517375513, 0.147705466919281, 0.1552395775089569, 0.3325736836825859, 0.528314798994053, 0.34674405729244806, 0.38116084154728774, 0.27092581619975314, 0.38540065212794117, 0.41007682310780996, 0.18977646997707104, 0.1303358865918415, 0.177164756835179, 0.04505900881346959, 0.25183215619681465, 0.31604996119492634, 0.2894539727694253, 0.17162235412375262, 0.07279583686287766, 0.0013757275006670941, -0.017812002354352655, 0.00630265243319908, 0.015461360608555701, -0.003813282899905485, -0.017038904588164993, 0.0036196905163808596, -0.000739309954996479, -0.010647286738837735, 0.02409467572235407, 0.04778692500511562, 0.12714224393329662, 0.16924122631300392, 0.25070998099079184, 0.32954641967316123, 0.40116902854331976, 0.2870946708358735, 0.4741233069642815, 0.5072292808986337, 0.5387549173448678, 0.3696114970413981, 0.27858561623954736, 0.28080595625576105, 0.3203781342846408, 0.24567842664936987, 0.16849676600477267, 0.11167581830765823, 0.07094910188775139, -0.006941487828625377, -0.007413935416743233, 0.0017873667853962505, 0.01126844749375485, -0.00827339327116795, 0.010879911999124654, -0.013012529496353188, 0.0022764045304502142, -0.0019735227012128284, -0.009892258453563259, -0.0014432933071313338, -0.008015372642966036, 0.035849311979092496, 0.0523342339342578, 0.012148883298324798, 0.025644660239065017, 0.01952457337833944, 0.05269115784956553, 0.03784096966177474, 0.06947295835925021, 0.07051595669358607, 0.03507993283523595, 0.03790003058143928, 0.1013811697039832, 0.08151657721712609, 0.024442547736571875, -0.00647945983754697, 0.02678814705165436, -0.006527415776817825, -0.010674927819907042, -0.005222265779606067, -0.0048302717943093775, -0.0090483868395209], [0.012132032807947281, 0.004188692038907997, -0.0016326787474871963, -0.004308213385108977, -0.010573716071770089, 0.0019001634666816378, 0.0009937057601269613, -0.004558945274878451, 0.009736300399053708, 0.007642153694072647, -0.00669820733126689, 0.00572289353225155, 0.005941466331302586, -0.0002711152903712878, 0.01030651470013272, -0.004061704486333099, -0.016318713259034258, -0.013553491525314907, -0.005698338251874475, -0.0027607069423616513, -0.00047859833946966375, -0.003930438075702882, -0.005475441611648163, -0.007866500123645889, -0.010377384070162674, -0.003161522254128572, 0.003889950994594317, -0.0028740292268069345, -0.002655207270231092, 0.0008363332061715151, -0.01993027359358328, -0.009849401231358426, -0.004199998806558177, -0.0005200378141739223, -0.0010837830862665174, -0.01563240576480427, 0.009226535165357277, 0.018326863120957958, -0.0025455304710120274, -0.0036028088880963316, -0.009570363759867022, 0.0017262116460904694, -0.041049537667463436, -0.09924640148596728, 0.027025711724380428, 0.012220909017393658, -0.0051854485770571794, -0.0008037441993417166, -0.0047656869695541105, -0.0007871436407322637, 0.021085988924199894, -0.004240166449146488, -0.01046184126417357, -0.005835905767718281, -0.00013320845128716733, 0.006567412749123659, 0.005386360897274253, 0.012098658212854491, 0.007555961508442957, 0.0016756403395151612, 0.0005174908405315636, 0.01723520306597251, 0.003224234929135556, 0.008497199303435114, 0.03828292538431113, 0.04706080976125698, 0.050843279386631655, 0.060419682733986776, 0.021837795657344707, -0.04698621402822025, -0.04995029325343947, -0.11402919351973533, -0.1103038983791348, -0.05090743471965827, -0.11982832277757889, -0.13863221115031638, -0.09404440808876059, -0.049206171774360104, -0.07012283624204844, -0.027304797138751693, -0.002103289226584273, 0.018300905543427413, 0.019467672349927054, 0.009826489472261963, 0.014733528548725736, -0.0068339933465529756, 0.0005451279947328137, -0.006637291946209725, 0.005530774347868409, -0.017610981558580686, 0.002574466496404156, 0.03947933280729436, 0.15014807424003065, 0.25589329653169746, 0.13931787403391502, 0.0640872086715902, 0.08067185363745834, -0.04737284100428838, -0.05164503289778215, 0.003785894046621451, 0.027727034138794585, -0.20760562508314878, -0.14842235923124283, 0.010557386617010299, -0.20491802391815353, -0.11064859042677598, -0.10221194210850075, -0.09359584309706304, -0.03996748463185147, 0.02344051017978165, -0.007101983489680033, 0.010707072764198255, 0.01139360475868306, -0.005721936245918916, -0.003135455566330322, 0.0021983775208711497, -0.023851807602593006, -0.026031140921472396, -0.0026346809214630256, 0.07462766800034627, -0.017398887841050148, 0.10766199929342123, -0.06524201326863274, -0.16556451701168834, 0.04161156725989608, -0.15763389721953494, 0.06763891505636757, 0.08715004638151537, 0.01791573587716458, 0.023432192559261704, 0.05397739878095295, 0.0161510801903819, 0.0011115039095661939, -0.18954920495400426, -0.18244551450347282, 0.15362928775394605, 0.06525413926158934, 0.04598036364238019, -0.0037018279290242126, -0.0359422219115965, -0.004523330424199657, 0.002427727156186084, 0.009409157206815072, -0.0037284155201791347, -0.020626668166412118, -0.14317976656142278, -0.14158019550359371, -0.2365615090619785, -0.12017727248740293, -0.024885475801307972, 0.08707795662983578, 0.20165374092703234, 0.10842801932047892, 0.12253336183341856, 0.03117532455272224, -0.002255561046161479, 0.10761372499633132, -0.2231807611500324, -0.14747228782369137, -0.2834026592498024, 0.0878382057121278, 0.17793487660587917, 0.05416809195346009, 0.2894944160919174, 0.08037618117684889, -0.01620717026251565, -0.0845622807782101, -0.032756052995241446, -0.00686630726144431, 0.0068311823817713375, 0.021043925893596407, -0.019898944086604226, 0.02539640834730337, -0.009555926082335174, 0.018092272455680836, -0.04854415748221158, 0.020873058197106987, 0.12637413869616002, -0.02160731733349728, 0.15929999668628841, 0.16208299253974282, -0.20408855904540152, 0.2771453491544898, -0.28751415422759513, -0.15365881970504658, -0.11232900663708377, -0.24232717846517776, -0.21364257446690127, -0.10957752570510619, 0.14157747438579382, -0.1713883759558901, -0.10485886359469744, 0.2572004584747843, 0.048329561280888306, 0.022936275961643906, -0.0018123943648627977, 0.013735696632187582, 0.0036950313979710646, 0.008080371818119303, -0.033894798647410705, -0.0353124457617782, 0.1399972484083061, -0.003743512695201203, -0.07509906291305077, 0.21607612449541772, 0.09829585338720408, -0.11946488809169677, -0.06413258499059377, 0.055021340864754686, 0.04898514589123234, 0.03896172454921489, -0.26287877846387103, -0.08954973784172608, -0.0038464070811185225, 0.05904664429229617, -0.03637956585109386, -0.12199933934813628, 0.11815464671547674, 0.45168692644441255, 0.07049722404929044, 0.028873869457156406, 0.08679745363821491, 0.11059720631482736, -0.004873757170617565, -0.0052998426354017615, -0.015480683359130496, -0.012516116921007892, -0.05489987875552929, 0.01244502723191296, 0.07308825511727488, -0.10610995797280705, -0.07197650126411928, -0.028352619079956686, -0.028604975158275335, -0.016010984898974276, 0.2201188202042777, -0.16049605582549972, -0.07777682651161892, 0.1662580824799052, 0.29462733648015893, -0.18994861929947304, -0.0074342254766339225, -0.10390212974544616, 0.29161850197503697, 0.3296285532858752, 6.20405685383204e-05, 0.3657166779082114, 0.5003632889634525, 0.01132199571745076, 0.27287827367177747, 0.044217289747404936, -0.016380634185759965, 0.006254745752222884, -0.006351986955056979, -0.05806525397959443, -0.12517431467150253, 0.08309974878201844, 0.22193975769670446, -0.050000059498613025, -0.057450622094337794, -0.09812211617242622, -0.10899112585758784, -0.08266725145460083, 0.31766469091526256, 0.35391354129334074, -0.08494609337118193, 0.18880283027620479, 0.15873786546739815, 0.24150817048318707, 0.17463691157124192, 0.18090650735766695, 0.05765918488524179, -0.10284321555528468, 0.15457974572128227, 0.26469458517199895, 0.45877273870189594, 0.20625988351103824, 0.1458626229994287, 0.009608237485971723, 0.004607837773946213, -0.008981332129167007, -0.03139165837641665, -0.047027838221677214, -0.09371778148411672, 0.05378467127342639, 0.3301081043473417, 0.3537394870623405, 0.1959017610086798, 0.21695076821186257, 0.20578756592861402, 0.21785271817730767, 0.03641274898818782, 0.01366646332639876, 0.5888065392271236, 0.28239085336231917, 0.5244251275497377, -0.049162438249221826, 0.05334862164699597, 0.025352418082489062, 0.01726283205215253, 0.046343270449260385, -0.13144490556552496, -0.16125862133227276, -0.03770266917080626, 0.025373827629357682, 0.16664279447625427, 0.09133260108043452, -0.0059304713583202395, -0.008417564969216225, 0.00010838915009727916, -0.027091795562525837, -0.058542571550839334, 0.08858646339559337, 0.2978999350345615, 0.30881144647632125, 0.2059288257934973, 0.0962592144188917, 0.2607069390979946, -0.09712035004539542, 0.03454303956669344, 0.14002678814536595, -0.08345422240599665, -0.008668970581151627, 0.051382251046681704, -0.050878175149036996, -0.22492723905243564, -0.21308071275434357, -0.2562473907721591, -0.46235809066730427, -0.23923980352435914, -0.2851738847758842, -0.4165868112296455, -0.27266286724754313, 0.024607956957118985, 0.09415230658459026, -0.0031767445348055896, -0.003681177062238575, -0.016102390653981724, -0.011137009777600574, -0.022131400237789475, 0.03021228395984024, 0.1941812774047919, 0.17698096875114105, 0.049564220554694796, 0.2215754679134588, 0.1170078502391157, -0.27869862558472186, -0.48709446250878324, -0.6210088504624334, -0.7508335890450965, -0.7311290639936229, -0.5773877790986179, -0.45378147748922293, -0.4276161129993389, -0.4437515184727865, -0.5207888668430527, -0.666009287262926, -0.34508429688386844, -0.6415342814069787, -0.7834030049740962, -0.49378034522925, -0.1427233290469199, 0.03445366971086697, 0.0187116369986277, 0.004206945893802463, -0.00876236932093153, 0.012307671109272387, -0.04681381155325275, -0.21209524020494588, -0.11436293551810839, -0.29292960853031746, -0.4629608045106651, -0.5560834322431059, -0.28207106811906557, -0.2778510037396958, -0.7835414987242291, -0.7177929442919095, -0.4003102478535733, -0.4010122787652285, -0.5335226213297948, -0.41390917709152586, -0.13335481580304392, -0.3670145494092694, -0.335156480189094, -0.3005458128027148, -0.49198187794945647, -0.6492314291932186, -0.7528938718318273, -0.48762671149696807, -0.18972620857230632, 0.029166140169761885, 0.060668459574165286, 0.008210795798461842, 0.013954314728044648, 0.009298897174216756, -0.07858236862176318, -0.3533114248992484, -0.7179488259539353, -0.8888986998502554, -0.9342064279007727, -0.9320448452384291, -0.8511544380894208, -0.7332596356112504, -0.7288815871497384, -0.6574753452167135, -0.6004064249558402, -0.284955131685568, -0.25151559148285757, -0.3026930637334076, -0.31265265202788345, -0.17148583968900083, -0.151850443538986, -0.27977543976372954, -0.49084478721144104, -0.3361023455249733, -0.5710437321212942, -0.5479071804216143, -0.15362888477791992, 0.1580355564157096, 0.014776615236548824, 0.009308166268032596, -0.009112230843667224, 0.006590013028410475, -0.08148613552855118, -0.4691708632113204, -0.952449959664503, -0.8886970587908191, -0.8438063849017299, -0.6696863656577696, -0.35363656981027813, -0.4172139927785496, -0.21104533842221013, 0.08601623925788981, 0.1926701965782232, -0.08161059951735795, 0.007559372293086741, -0.13352470536985317, -0.2811736990563149, -0.4270940132323812, -0.40220589802435963, -0.3611136796598647, -0.2597344705550345, -0.3942353336244235, -0.46679992257749503, -0.20419415856043882, 0.1278028816484622, 0.18005517372170007, 0.007482608895195038, 0.013673637342262792, 0.012322565407242119, -0.03126244778148118, -0.08722443718720427, -0.5943557872053048, -0.8542156038713852, -0.3971049100453085, 0.07268057559719901, 0.04176930855643868, 0.11596885088954517, 0.296209888854652, -0.13005568023774924, 0.08054641663826773, 0.10794366969910855, -0.030784449533259997, -0.27058366019913394, -0.1304813862381029, -0.20064966205210177, -0.41789610254917114, 0.022041054984856517, -0.019730083456006773, 0.1444728278796256, 0.010533926361409391, -0.1746520797010123, 0.05002040962919871, 0.43342424229356397, 0.14275494685245027, 0.0012827353161646582, 0.0006952594313935314, -0.005858218513478236, -0.015530294420897452, -0.13088732141913023, -0.5147532488990957, -0.43292822532749287, -0.11075904835588923, 0.014052099500852944, 0.14622136660738452, 0.12917454207656595, 0.18269810819765608, -0.057629743059450546, -0.013331650327083578, 0.24316392864161546, 0.046523426972580655, -0.06629875424439155, -0.03179658377690564, 0.0581106222730694, -0.012819067126622383, -0.20821209077842295, -0.09030578827062115, -0.007755869309783818, 0.04347928786048543, 0.05182271838950302, 0.22250103864849372, 0.4899629877664366, 0.0679977156589579, 0.008580406461233946, -0.010076396611933052, 0.0018966982461074914, -0.02536799768888389, -0.12537005683340338, -0.08325879495885398, -0.0703332244669632, 0.19116661502470816, 0.12395430122948259, -0.1895132490847347, -0.15982948676442968, -0.05767332701460535, -0.0179600054002276, 0.23048232729179627, -0.2109822562746429, -0.06187724900058162, -0.062411291339400675, 0.04375646935069327, 0.16294412635226416, 0.13954311059399163, -0.06673219168569666, -0.296779348475169, -0.01349320009147128, -0.05756754103436947, 0.25391207864523985, 0.4756672002021422, 0.3403607885603427, 0.0830677067749372, 0.04893348585084592, 0.00870965223352805, 0.010225255027004542, 0.023473255107316585, -0.12456315056167623, 0.09879639943297874, 0.12357897658227139, 0.39344079883258365, 0.25475672523622495, 0.04579031438923221, 0.018277724271292633, 0.16400433468945008, 0.2082919570902048, 0.28177004934545496, 0.666027664978653, 0.4632450904405127, 0.42170649876903704, 0.20766193054837428, -0.009755460361228542, -0.16991546898650678, 0.014397766303891675, -0.0742355505492848, 0.023055298243959965, -0.09194957682241173, 0.22248513863936892, 0.28720931094720725, 0.2439516327198482, 0.10190609215506323, -0.0066688418305938905, -0.002734754299865969, 0.005839850312293452, 0.019675064223204346, 0.11749153604747233, 0.2605703418285822, 0.3804925023122641, 0.5991269868899287, 0.4093634279794103, 0.4507578085130378, 0.3570377556933843, 0.03433858334357134, 0.4958097324802656, 0.40198297444669523, 0.3519109435575978, 0.20448008899176015, 0.08072424396745087, 0.2893698585842526, 0.14723687719691536, -0.12583317085214646, 0.2162517232183886, 0.1437602382416556, 0.1548748343066383, 0.07732821926578595, 0.3237407357332524, 0.27941270827314496, 0.19374192112548, 0.03533648113960337, 0.011338484287584867, -0.000523023039424687, 0.0038536471340543887, 0.00916262200528629, 0.024444785435538862, 0.14806111517808557, 0.2492795119434345, -0.07942994880136933, -0.0033063620542002053, 0.1622809802915852, 0.39875480755053544, 0.3846638725780011, 0.33996178281705314, 0.2705758663434965, 0.32717240647393614, 0.41398696368758925, 0.22378650733087643, 0.17555944294180786, 0.41411906942519533, 0.28119842294242176, 0.06548321901089423, -0.03162529111321919, 0.09086365318302458, 0.2952000410280898, 0.5086893140354734, 0.26535514197954485, 0.1218955690828181, 0.02745959281804219, 0.009956794581329328, -0.010420559079256122, -0.004186541195221448, 0.0041440622598687745, -0.004039817876968527, 0.04010772993895074, 0.13557602682645856, -0.002614965103123051, 0.14506177213734708, 0.10863910162410717, 0.3659118770058917, -0.1030278717152644, -0.06255395638202008, 0.21372049368903384, -0.0844919699142112, 0.3414353777613176, 0.14248894642077642, -0.07566990404087318, -0.06163797856395417, 0.11687816617438364, 0.12059739089517868, 0.26370977050902394, 0.30037177345401844, 0.22552277620045957, 0.1555708889038277, 0.09083606749217422, 0.03198628472238008, 0.006089479106877676, 0.006419555781064358, -0.015806179564066273, -0.010094803166325446, 0.0032346602848383347, -0.013455511890611092, -0.026463036868044517, 0.014592221712158062, 0.12085746066543598, -0.1967160723770496, -0.27414197485973224, 0.20707959890525504, 0.11683482911222212, 0.06727026029347673, 0.19492793957323745, 0.02518293367657455, 0.2745078405735498, 0.11880390272617473, -0.13335422551008366, -0.10951823458267752, 0.06273617113877769, 0.22290841599831704, 0.22340575002352714, 0.2659999102165406, 0.21783218518787043, 0.19755204633266882, 0.01348912998880637, 0.04498175380354011, -0.018916912263238304, 0.014749548533713488, -0.010299031494508048, -0.004403744339093607, -0.021299235618486657, -0.026126754860555677, -0.04196211745196734, -0.06693119885934053, -0.10054829214184231, 0.09119317120397469, 0.13250112277552542, 0.12087684078323493, 0.047351143813303846, 0.13395015681560893, 0.11455644056744257, 0.09730310579655892, 0.24034607140279104, 0.21398509739163657, 0.1147562441209806, 0.34490276169186235, 0.3289583472571417, 0.2861838697747039, 0.10470322433191323, 0.081340216677565, 0.17299381034561387, 0.10913557891116116, 0.10735311837837448, 0.05369177115262079, 0.01489285713183506, 0.0052155262919519624, 0.003810411024640273, -0.00446074392124823, -0.0025714268480914273, 0.004897093595775742, 0.011149826966798825, -0.010775845012021867, -0.06318910303978818, -0.028740203435252992, 0.06340046891222917, 0.055286632488426024, -0.006737404469479985, 0.17394117298210549, 0.17596012721023896, 0.3044484830968058, 0.25635930930645057, 0.14195712167934318, 0.19448416373929492, 0.2982224873081814, 0.22239856292019605, -0.04370140116426752, -0.11299943891327456, -0.07536270577626346, -0.02514111881482952, -0.00993901779553681, -0.013657391573966235, 0.002918219252304325, 0.021001883250720405, 0.005530282051784787, 0.013263518568134855, 0.00591106828049753, -0.007677071029729783, 2.0523063668414663e-05, -0.016703691016569933, 0.01467234292933656, -0.013919823260855698, 0.031411770489116114, 0.08586963959681816, 0.12257289570609235, 0.062318146453417475, 0.07002210527028675, 0.19764520584187945, 0.20354904174810046, 0.13503801646453795, 0.11149378188071166, 0.019936458231423034, -0.06353644669686646, -0.06534762646072301, 0.04059067866011375, -0.08146755363871348, -0.07981176957420115, -0.040062931360293486, -0.003552258861063375, -0.0070498897095097, -0.0015917337180493007, 0.00979864746782495, 0.014219478179797412, -0.00024154358479385767, 0.008352111596178094, 0.014786869725781391, 0.004755626029185066, -0.0092635909543693, -0.0040909900620074375, -0.002358954511456865, 0.014080344287444885, 0.0037567352989743364, 0.022719848359296847, 0.01897331846817207, 0.02339950144256817, 0.029373422609730276, 0.029208302388553712, 0.022417818099475115, 0.0011151507199182367, -0.006604891921171244, -0.00010728067189153403, -0.026177234022750347, 0.011607622498576555, -0.04531637933910878, -0.04638421324197092, -0.017348237859415368, -0.009062090198224291, 0.00012921249436720198, 0.008787895442550748, 0.0021070345714641297, 0.01638142138547829], [0.002104640962504807, 0.0006541884303259832, 0.0031465494133582827, -0.004242759685027719, 0.004521641281627338, 0.003783671626268655, -0.0010472480206495489, 0.01379168552677165, 0.010470492415030747, -0.012519180859121685, -0.00707569332777825, -0.011714714278519356, -0.0011231050039459134, 0.0030262682795663496, 0.0028660580391003626, 0.004597936911021178, 0.005664361823798262, -0.008311792444937193, -0.00936842684352588, 0.0025219791432153534, -0.008172456938730316, -0.00797246922124795, 0.018180804399666902, -0.0018390701991124667, -0.007764530855745584, 0.004776365820839111, -0.0026024069438395922, 0.006243203108097994, -0.017012625339553646, -0.020349762907798646, -0.003640647854150363, 0.007474017083233808, -0.0006984383066451222, 0.008146497755482629, 0.021219604815104598, -0.004711642539296876, 0.004946749142385478, -0.0033124980610577323, 0.0074396805316055544, 0.001855769746427842, -0.005348080611688231, 0.0017766457819056566, 0.0006744316789110188, 0.0015460303354270632, -0.014556846066769168, 0.019091034093521274, 0.010723624363837194, -0.0011958190554406814, 0.01787490939584548, 0.006111194707707878, 0.0002912058183837555, -0.011630667801142221, 0.012289669016228931, 9.103651897671547e-05, -0.01843301799725487, -0.0037074810962787644, 0.0027449719517984132, 0.011656907010298218, 0.00023128141452601793, -0.007937388076765908, 0.005531524223842848, -0.0014430902212741966, -0.009161948293008176, -0.0013713185777287304, -0.008529743869183622, 0.010340132867795004, 0.0007485019640350203, -0.010772311142753828, -0.012265901770350678, 0.00732465732521912, -0.001980091049404126, 0.02027664304833876, -0.0019839182448058634, 0.027383419087323422, 0.07032972616462045, 0.02621972273236978, 0.006016828083690515, -0.004167970225469579, 0.002881342427675487, -0.0016359111496108416, -0.006114516110887525, 0.0008976603461157394, -0.004646101044963365, -0.009732294318460627, -0.014930786528137908, 0.008723332257275968, -0.005526308652734017, 0.016902049529159344, -0.0011853107670944118, -0.012791025438287137, -0.016463101996356713, -0.001463376692102164, -0.0031658503827771017, -0.005619134566444769, -0.03624601818261442, -0.02156382647045576, 0.04244594710350786, 0.01438148166141106, -0.001087714051130459, 0.009858794965275511, 0.052707931340602664, 0.0416686614412186, 0.04286239546597097, 0.08682878241595256, -0.07078327170533194, -0.06244435276042431, -0.056578529678635706, -0.042152009010089656, 0.02036962408551355, -0.026127534435405764, 0.0007814975151321219, -0.001553112411377475, -0.0010145280989575498, 0.018185886850876697, -0.014930713540879628, -0.006312378211742077, 0.009405278027016352, -0.03615906480433692, -0.07300061546316779, -0.057550188892163005, -0.04753891986047478, -0.08025812940685108, 0.017444342311917334, -0.03662424188829211, -0.21664185838124747, -0.26482704951296243, -0.1767022945273832, 0.10933347998568047, 0.07435875223106211, -0.017270561013676015, 0.017141621665916512, 0.14043149345187236, 0.010577015262608208, 0.19714798084954566, 0.1767407159743171, 0.13482156898571176, 0.07311660934287456, 0.07550519266599413, 0.0036265323535912084, -0.0017899857421301772, 0.006132587496351361, 0.006231731931995223, -0.008981165215652611, -0.0042895766012591135, -0.008783081921650188, -0.014730805843965343, -0.05801764418854857, 0.005977830865384065, -0.07373135986511976, -0.010499782438392417, 0.15094341370364694, -0.2747853745397293, -0.0209741409872683, -0.057138166261040596, -0.10194789861633397, -0.16768899747283403, 0.011581816723111185, -0.1219310883109193, -0.023996160342130694, 1.5021269063843367e-05, 0.27911094808246095, 0.07861561514444897, 0.13162465790161454, 0.33036094990422155, 0.10550219391977642, 0.09295929498620904, 0.0002507677565333069, -0.003017641565835989, 0.0018517398800886847, -0.004679569156043356, 0.008094126849953228, 0.012066194022407828, 0.005479134327973437, -0.06929732918948585, -0.14028676454865815, -0.06330707946494078, -0.0018334154774042905, 0.1996816438187404, 0.33404961083765194, 0.17464074945071809, -0.03711017974559188, 0.014288160859203234, -0.0061537620073208645, -0.20556894933176997, 0.04233379289679847, 0.02688169645688221, 0.04215490551334312, 0.16754183062968528, 0.3027305601339298, 0.04688222236873991, -0.0009174474145619424, 0.17523129700797313, 0.25286444602026775, 0.16595066780047138, 0.05042012170071078, 0.003508261755400554, -0.01467663725110832, 0.009028235881873065, -0.011574692931503764, -0.04480266316340912, -0.04438587789182682, 0.018743755767210716, -0.09259020834268536, -0.059924749715214894, 0.05800151345152072, 0.01581570293280034, 0.10452857185022511, 0.04965424494456915, 0.15817000979252824, -0.10740667740107375, -0.0622935615698162, -0.050028233407072305, 0.1088073839658397, 0.06900243373708154, 0.10322691652073063, 0.18926649373924032, 0.18976540315542725, 0.15855214030368645, 0.06524974397564022, 0.12286736028020787, 0.28587444212110363, 0.2325771475085683, 0.1024543530353465, -0.002268853691527832, 0.01021087252555333, -0.0067446280890741915, 0.005468607832508342, -0.003042087682101974, -0.005299475641256633, 0.07046403040392749, -0.1597430493013771, -0.12363152221290374, -0.0893332589353181, 0.17173249061083146, -0.10615265421784002, 0.05063428982765741, -0.03488804374658544, 0.07046177738117905, -0.08119660615520218, 0.11640764725827546, 0.18335691204631155, 0.2202836108593502, 0.2560080251208404, 0.3388312323585501, 0.023609355156223352, 0.18518144549292986, 0.19345660057727412, 0.19459496280971447, 0.31914283500182566, 0.2101032373802442, 0.05065593028990762, 0.00013522648061445411, -0.004445289964825521, 0.003401053530917999, 0.028141923133636712, 0.07609194021492434, 0.043045705921818105, -0.07227023703780291, 0.044740267146421625, 0.23395569970302674, 0.01709307890658893, 0.019642818101106276, 0.07174009036739087, 0.14119034077830503, 0.15598077398962262, 0.12388754439429647, -0.06056739435689209, -0.0010478647107796104, -0.19985427664011918, -0.10400648798625507, -0.052428369512730374, -0.14667952837499765, -0.005165366532610594, -0.11720325963546643, 0.03047746378634657, -0.19168025741326047, 0.011210380509085544, 0.10622849325961037, 0.03486726602834094, 0.018463501034198092, 0.022790451226658032, -0.015414664566970677, -0.007440538418728821, 0.15274807312967342, 0.04725568911124551, 0.02689970581588147, 0.11613494963320005, 0.001358918065284225, 0.14895116174595335, -0.06963369740696779, 0.014399407834716852, -0.0028465209580073167, 0.019218372090552542, -0.13071211987636608, -0.4126138546401659, -0.3924357102352382, -0.5071685858096772, -0.2660880406954118, -0.4291468822175202, -0.6369800469927535, -0.24179207420493887, -0.3049844309493546, -0.32364766305390247, -0.4589095888605631, -0.14374237845988783, 0.03779885515365404, 0.01094709704610316, 0.03438504302607485, -0.0015877607585280667, -0.010402386285135536, 0.016139800014025794, -0.024662711909715924, 0.0292828612760772, -0.08036525006020918, -0.10061522773900008, -0.24139987096842455, -0.22934836518437968, -0.12028484306698134, -0.1305615136389462, -0.2901961552252586, -0.31534513829397237, -0.37682510332725927, -0.33707039907368025, -0.3792787736833838, -0.14863984804131108, -0.20598677741748708, -0.20370517622756215, -0.38163067932846934, -0.2720727959477585, -0.49689755378930733, -0.5125760210616795, -0.24665356876085207, -0.19632296131290863, -0.04174917977931291, 0.011155547741679987, -0.020825560124700073, -0.012267111627430695, -0.011323015310986718, -0.007870250032290187, -0.11073097762157232, -0.014656990333132737, -0.20534335568512058, -0.32037616306741995, -0.22420845837764, -0.13475387340416145, -0.08982702278204542, 0.01687103929847685, -0.15853957412999622, -0.13979996914000062, -0.0712061981715994, 0.04712405767355862, 0.059414158846231975, -0.3381546380839543, -0.015655759933123233, -0.029740259544799346, -0.42226030565056166, -0.14158876969761305, -0.375693532798152, -0.1772064376104422, -0.17493475563142225, -0.19118529761773959, -0.06773292876636448, -0.026202532764154893, -0.015127863575798367, -0.001345563751764743, 0.010187692135110171, 0.013861636351929172, -0.097900052611365, 0.04288459743614459, -0.09468081601276102, -0.2098131096351257, -0.10434135280821863, -0.12033744102279313, -0.2040418002923829, -0.0733205337814344, -0.027506216264833228, 0.010867700941240888, 0.13707325818453278, 0.28080795601868846, -0.039739750169593434, -0.05209573260903084, 0.1297835414139224, 0.047613465704847965, 0.0516949600537093, 0.04260804000292809, -0.10170986755374065, -0.1469719011004597, -0.08711881769224226, -0.15339833365845512, -0.07129956500644928, -0.016055691060883667, -0.0063415283328343485, -0.007354655639023036, 0.028558797083087166, 0.0043482138001540455, -0.027117430582225995, 0.005480651148378856, -0.03302128294639788, 0.033493406695338374, 0.11951958644552112, 0.226030293497474, -0.14345339129551685, -0.047076998839420854, -0.12497750657674506, 0.01185285468379021, 0.17195678850259039, 0.22014725932419837, 0.16411511476604568, -0.012180248069798914, 0.09024502023407041, -0.09432843812617636, -0.1191034710850884, 0.13029416245936196, 0.07998378138187677, 0.03925728086296464, -0.0032592726021067916, -0.05429647503289607, -0.07203762027059646, -0.02534416625422795, -0.015586866926331237, 0.0017273739352735126, 0.014122392587859302, 0.02044977582650298, -0.0025152520219644463, -0.06491749783954213, -0.09667075739721587, 0.034305268343715285, 0.23124233332946012, 0.14013577781777506, 0.2835922387952631, 0.13832537819294236, 0.06432881246014382, 0.09455778379851852, -0.009645223372054333, 0.039107387752961215, 0.08595187586319053, -0.022212961400960993, -0.4744982050928457, -0.037699889168218655, -0.2685273949783625, 0.006293840457575174, -0.009094255085443469, -0.09865354215883233, 0.10134557286630826, -0.025360720958449344, -0.07355188723294998, 0.0003423139721784005, -0.006167852729579679, -0.0065852483219679845, 0.015596840909037683, 0.025476976679038373, -0.0022777447228815384, -0.1516881348341548, -0.20766268149023145, -0.29528328504410417, -0.2959498397412048, -0.03939309953573385, 0.4145156522629712, 0.5743189506364487, 0.4003359951988526, 0.5030494853244533, 0.28577593303579685, 0.15502410205901404, 0.10880451380777753, -0.31478727678796625, -0.31477176249484107, -0.057720666639289445, -0.05523142310935878, -0.17551546577444943, -0.08382491747782195, -0.07401500784019123, 0.06828573434418549, 0.018890172840421514, -0.06381014666715357, -0.04358881487076995, 0.026600353864982832, 0.007042696092530515, -0.010316377113250792, 0.02596858658232722, 0.03456581802226491, -0.18460404911430428, -0.42922121382556516, -0.5962317407423827, -0.5390491563554288, -0.6277140458216796, -0.35776682020091205, -0.032940744972723215, 0.2494849863816759, 0.3549949705926528, 0.3764278311556353, 0.11698360556332027, -0.23146768528099101, -0.44537734877521956, -0.09632160171116222, 0.27012820261666814, -0.051284554952277406, -0.1803545009444512, 0.15126411765517975, -0.04245265618630874, 0.025836104957026276, -0.030294535142414952, -0.02981189079343481, -0.013803193176683179, -0.017355172509430538, 0.01196133130494885, -0.007738904696358252, 0.0196674324429712, 0.06740383245407879, -0.15362742924491576, -0.5588227358585719, -0.7954571602441919, -0.6670870531999384, -0.9939489913899406, -0.7855362355523972, -0.7552585504354183, -0.76546534198782, -0.5299626672356514, -0.8301504476561374, -0.8344912498016783, -0.6122694222105853, -0.031931238174404374, 0.20918233601940933, 0.013757249062716963, 0.14016818293843708, 0.09261078600360001, 0.13554664376266676, -0.02376134007658735, 0.010179259971779457, -0.11682252349812677, -0.018215392693800923, -0.007039108530344359, 0.0007714980959785518, -0.004782616804567977, -0.006268692779577228, 0.09704361409194294, 0.12050688509115265, -0.056716697214175035, -0.33716392042115595, -0.4176596905237249, -0.5319449767988466, -0.7879705680601992, -0.9037193368521464, -1.027083667788466, -0.8960092852802976, -0.955658156441611, -0.73067332114187, -0.3155365109143561, -0.11675780902945793, 0.12106668515028153, -0.008629679681095582, -0.08235708563868278, -0.10280616483186633, 0.13688507478070086, 0.0169367326583592, -0.05565326623362273, -0.11966479334434801, 0.01243218691587314, 0.010299417994947158, 0.004691053917369424, -0.017310503391494474, 0.00046063833153326376, -0.013137564395472267, 0.055861404467318146, 0.14874186854094465, -0.030859801092160785, -0.06192667225282153, -0.07626871297743135, -0.2638948932269031, -0.33626185574819684, -0.20722777393232786, -0.28937272174299483, -0.30460069824620334, -0.3722209359578244, -0.06684082727655648, 0.2149732448968191, 0.0845105917059036, 0.2627833647267281, 0.2720780979442636, 0.1429195531707664, -0.05123286513560109, 0.20495399112499812, -0.0621420264883237, -0.07388931504552852, 0.005824882803128961, 0.08265996275904927, 0.01913389137470362, -0.003295050166642457, -0.004875168213800544, -0.0073421762769286854, -0.0005306236815270869, -5.644373036304962e-05, 0.026144185682482068, 0.17085369089581223, 0.11778903385896312, 0.1360441927467128, 0.16314409372812075, 0.2359376723858512, -0.010103551357246188, 0.12114666298552242, 0.17038779676905585, 0.23547011932686618, 0.3796569495127497, 0.37507225537881017, 0.352779453248587, 0.24787125160219944, 0.08809429599727857, 0.3620459722415645, 0.019240634725261732, 0.13345281893358635, 0.04568231576526631, -0.14716475275991675, 0.0615422313126944, 0.0098625826422781, -0.04854998966923193, -0.030290231015931094, -0.008994422138667942, 0.010949666868942309, -0.010171650545386957, 0.020958064274816342, -0.007798802023425838, 0.16482541547129226, 0.1584705113772882, 0.23294405307444382, 0.14038333491372662, 0.29425738912067084, 0.1328716264640136, 0.2628801681869914, 0.3479224730880505, 0.17771959455507094, 0.10337561814393074, 0.10318923347002024, 0.10478285534395744, 0.03445069632069838, -0.01470514695092581, 0.29052686662519106, 0.16482008510001345, 0.1664815915692837, -0.03683856754672774, -0.14407263198444842, -0.05458815283980165, -0.06919323724958483, -0.05206794341602654, -0.02739501963946664, 0.005930646197857685, 0.010495078932612742, 0.003623316168511738, 0.001804245169026764, 0.05812992360277018, 0.2103145954670506, 0.1351298945533524, 0.25498260640276776, 0.19682994486210278, 0.10607470971095156, 0.06930325956254756, 0.19891759406395326, 0.2531457021626374, 0.13444042899250375, 0.19938183972852044, 0.17674638277260807, 0.18840195829840176, -0.09601980578102091, 0.19799100939329156, 0.1506421780910335, 0.15278993340609284, 0.08923542990479982, -0.039424235925612075, -0.04660060274905064, -0.06761256325059792, -0.029187051044947246, -0.035076961290500634, 0.002330447673217049, 0.006020726041600754, 0.008887761137718593, 0.010245280715035386, 0.002732089964938685, 0.0905924233113051, 0.17217209106055814, 0.2555569753688762, 0.3725494928245618, 0.4843877384004976, 0.17563451340050373, 0.2751294596831111, 0.34073354076764534, 0.11473863292628159, 0.0957675098888843, 0.22244423023883483, 0.3129157348727365, 0.2907562219973294, -0.07399306847883028, 0.3449039308215549, -0.05229831805912929, -0.2323974749691953, 0.03883185575493869, 0.06258240737928147, 0.04754708807445741, -0.029381446880540292, -0.0261667145558038, -0.006533666301097797, 0.0012560136000405835, -0.00145974254437465, -0.00872310615544592, 0.0011042925336959438, -0.008836632754776372, 0.004157916399363152, 0.01419948148252791, 0.0686198015359243, 0.09536592963169395, 0.2092563548895307, 0.2956526759847797, 0.2922665788114792, 0.37523915045510076, 0.2385342371092091, 0.2421519313805898, 0.32015767080280433, 0.01325064869945078, -0.0612835613017292, -0.005211458182762254, 0.016313000628475002, 0.05631100568045752, 0.15350491399652083, 0.09797410141132544, 0.08074884458585524, 0.10216752875257394, 0.0031058541903849868, 0.0256931334022321, 0.013714273958722158, 0.021002843902845715, 0.011449430550387775, -8.140591029094581e-05, 0.0021095618363143804, 0.008170551707547024, -0.018605451458558568, 0.008180051774561927, 0.014825051541710751, -0.0022397154033565302, -0.041205849271410556, -0.06923624488277194, 0.025772585771463283, 0.043225237367978966, -0.032130444348301736, 0.015312878220695542, 0.09576467674079789, 0.2070194266003735, 0.18987953317473633, 0.12982446611699613, -0.02069382837889909, -0.03390236711117614, 0.027344457441374613, 0.036503391391522394, 0.04755409080737796, -0.0005054924454189803, 0.008542688936061367, 0.002086479638304571, 0.004515328699277126, 0.0007698654989188803, -0.0073631687480054855, 0.003594934340011916, -0.0016425048243188267, 0.011234471793992406, -0.0046362307372046435, -0.018364723050980823, 0.004548048188468506, -0.014873864510667401, -0.015134184575916214, 0.005105691195501396, -0.011180045751870413, 0.007070469657754999, 0.008865101011012717, -0.0007976839827991612, -0.020019933366629997, -0.02427180816176092, -0.0012935144880185164, 0.010905068740322571, 0.005659122786682265, 9.769866813196767e-06, 0.0015714964088147, -0.0018374860234201245, -0.005053008362105732, 0.008837120563743769, -0.003120714472524522, -0.0032259382862307993, 0.007114371611237946, 0.002949436126720715, -0.008784592561209286], [0.0218188370693527, 0.00016157804025900043, 0.007267059162840243, 0.0012787339336495598, 0.0027379058051590277, -0.0003603522312837331, -0.0010070926516635996, -0.005914324518254542, -0.008118551881563619, 0.00904659367055169, 0.014815877153681612, 0.008214921647204606, -0.008725995180527676, -0.014235472045867642, -0.024987455545126828, 0.013632367004654354, 0.010617579895024962, -0.022699745015934164, -0.011824522680503964, 0.001824540965637486, 0.014156845669498354, -0.009635669959064567, 0.003904481767874917, -0.0038836506394249936, -0.0018158268231605102, -0.015283597248395458, 0.0007834875356658507, -0.008065616188632354, 0.002837030769580497, -0.007201556519887086, 0.01533289865947714, -0.02189311624970662, -0.006083135539485121, 0.005438725222876271, -0.010726070983155627, -0.019700337053786817, -0.05688710850289008, -0.023779232466691003, -0.011848982833314231, 0.014102159920231366, -0.002913797798740228, -0.0189086257764552, -0.004119226038626545, -0.02188020981457104, 0.0001497737119882473, 0.002962832789794266, -0.006226085630683183, -0.013352427894270743, -0.014469991013396768, -0.01836848578842356, -0.030968408220993, -0.01085392510671365, 0.0007630550828042976, 0.0024566271253685305, 0.003411992870482193, -0.01558233967575017, 0.01285078496159229, -0.0014685840822342003, 0.0011871439650838033, -0.0011821372539380255, 0.0170586340518658, -0.004052020996234395, -0.018437669432233676, -0.06585444612221919, -0.09372685107176287, -0.11201715871387936, -0.17349569302394405, -0.1580892247285169, -0.14440574916535384, -0.11177858916673605, -0.08915089846894679, -0.12943651369207254, -0.17440133589260737, -0.10479496063774625, -0.06548165941046896, -0.03775622452544682, -0.08931022860964749, -0.04081482660002513, -0.03953293210503049, -0.020563670722451775, -0.010941704690276331, -0.009860092197738916, 0.002926557508537052, -0.003923940884264276, -0.0062528847171263524, -0.0036939248830875947, 0.003576439394202888, 0.004950263739041508, 0.007950689354893948, -0.05058232746667284, -0.11456279704440121, -0.11354837747622533, -0.2439448712207659, -0.2109486212159828, -0.224305737678689, -0.2623920807136854, -0.3894406893009061, -0.4437205983462971, -0.10619133773390568, -0.0073465137283594524, 0.008367310628868863, 0.024278806467544104, -0.09052734609124852, 0.027139154564952965, 0.0322776006689729, 0.007626986433676249, -0.05478955091652013, -0.07243320423258069, -0.054084946817035816, -0.00032111278265102886, -0.010535752083634392, 0.0027932358581127456, 0.0023110156765420264, 0.009475424266245718, -0.01889799926529662, 0.0008808137346658434, -0.052301658283946555, -0.094131152107049, -0.09118580128657021, -0.11937272417238039, -0.1616151195535669, -0.05349274881650185, -0.2272950888069001, -0.15859194318415523, -0.1922385691486839, -0.21848790917320493, -0.2767215653319202, 0.018403935737828198, 0.04216588977635147, 0.24103931374506776, 0.12474849768441029, 0.1297916984545884, 0.006216230656000312, -0.07364392021352123, -0.06802798443274416, -0.12224034899401474, 0.03071051572439025, 0.03421786447744458, -0.01706239157858284, -0.01291597659067643, 0.007577521528987493, -0.010067450808064128, 0.008461017969292002, 0.005887497313558548, -0.11568181169873147, -0.0772927407798157, -0.07883978414218795, -0.12465836265193342, -0.002751806627102132, 0.05843744331423505, 0.13909673209475892, 0.08194660054261577, 0.02880110013567415, -0.20837846012920494, -0.0520278530688668, 0.04464843614568877, -0.30421184039984056, -0.3095388083879141, -0.4784431805401201, -0.33632283021168274, -0.4141325911070168, -0.18185214233318092, 0.027880096931700946, -0.14679766883543235, -0.12142951716674809, -0.005490799041148381, -0.011475147772564904, -0.014258083621271825, -0.009753373644843561, -0.00726450506784456, 0.004269989519577341, 0.01914856338552349, -0.05598812788072036, 0.06505139461183929, -0.0032934352565661645, -0.05070736289490045, 0.13116360319347106, -0.08717865846209225, 0.19493471691162428, 0.006684984281421846, -0.032738762303248736, -0.08876237468269271, -0.33082665839212905, -0.2626807510887209, -0.24500230135762024, -0.10342066626617151, -0.12440197072073844, 0.27361941912642895, 0.07679951275486785, 0.08162234979167815, 0.243568193251358, 0.19994786761619196, -0.08272455188592559, -0.007966838759329749, 0.01901775589702759, -0.037839661000947315, 0.006099395358244739, 0.008007730363985506, 0.024845954176057936, 0.04898978323457675, -0.03614118164664998, 0.07896222110727115, -0.005879634605417163, -0.10094792479995164, -0.11929809889864997, 0.20860928877199497, -0.00014916111120225376, 0.09199116194877845, -0.09471171670390338, -0.13951250053547787, -0.4772046062283149, -0.08932807572892897, 0.21892377152466747, 0.7432385879220651, 0.6237407899632359, 0.46740434208844395, 0.5138944793123296, 0.4460108049959492, 0.38412132734937815, 0.43649721522962037, 0.1769948151830531, 0.0580189321754757, 0.011033273041133253, -0.010993266727141038, 0.0022710653557021735, 0.012445434153598032, 0.04916737429426255, 0.08065940592070535, 0.0040244989499619655, 0.09491680591422995, 0.011034337150318835, -0.09174977791282236, -0.03392618682649773, 0.2607420748344467, 0.14616054385379612, -0.09457736228203993, 0.13356700436798233, -0.030776629794605045, -0.10259196857429985, 0.21240392585923099, 0.6092041058709884, 0.5799137309617103, 0.5487005199448787, 0.30859309066409396, 0.5003956773066222, 0.37412685284237646, 0.38674698955248643, 0.3004565464382822, 0.33245098880404395, 0.11992229249854221, 0.0018137721437158072, -0.002953548130460632, -0.00124860361602242, 0.033006103642143646, 0.06151466756846224, 0.010360818903315944, -0.026764893237405312, 0.02064917373916634, -0.002774380447761852, -0.03427586735138788, 0.009793068261418075, 0.3553045190749733, 0.08583064238433169, -0.04090157123284944, 0.1848144561205318, 0.3355038233354866, -0.157369150991368, 0.07147307942788614, 0.5294252472142753, 0.29949238265498024, 0.0260284083650547, 0.26695050208565635, 0.35502469801201925, 0.27025352063916214, -0.09024496791124038, 0.2839339148678021, 0.22636274331011697, 0.01022326661776986, -0.01570712222959378, -0.0015840064754753715, 0.000491098902151264, 0.0478627609901036, 0.09521759433491746, 0.08438295872350242, 0.034775210167353805, 0.03106233963238241, -0.1564670933105688, 0.12238803649314478, -0.02782049149930735, 0.0788637011221398, 0.26473541815507107, 0.23909843812380116, 0.018736394104484064, -0.07493035134326838, -0.7634639821025375, -0.4850638303764391, 0.3223802130969999, 0.5089731388525252, 0.09698697012981866, 0.20951670257295044, -0.161347082759636, 0.11912605388145338, 0.2656343784965788, 0.21504717193090717, -0.0049709839594856186, -0.0285268388847468, -0.04298265112328114, -0.00793707489359303, -0.010892061446620027, 0.032006739269189094, 0.013943407126732461, 0.09356461354548122, -0.10422995605064053, 0.00333479283066163, 0.1669040375897123, 0.29501480107402556, 0.272909876311823, 0.2769760404587734, 0.32024687677803143, 0.2968303665393781, 0.049342731245493564, -0.40741211531086136, -1.200730352584103, -0.6903226674132091, 0.24234575707350486, 0.30100526546787293, -0.14136809529893332, -0.0932728706073318, -0.07010299095579818, 0.24610359253984468, 0.3511205085562822, 0.09696610259006781, -0.0503398026582961, -0.023287513763616725, 0.03282907836981278, 0.005799666904787573, -0.004866272424878968, 0.005660086410793863, 0.03510477145248815, -0.003366960763038432, -0.11833362071666723, 0.23529862692181763, 0.15172607414633307, 0.22565083215995244, 0.1285739073538723, 0.03516835278688477, 0.1444953815857518, 0.512407058472568, 0.6001640521477597, -0.0934054130604098, -1.0183501024253865, -0.730583996746164, 0.013473912546618982, 0.1786383961326671, -0.09273621536346742, 0.22459418443082332, 0.31950210450884226, 0.3039566066321081, 0.5019774762834031, 0.16456829579219173, 0.16403290201741744, -0.0510139525464403, -0.015268515174633433, 0.01904084974428541, -0.003417519163252014, 0.010838776240276382, 0.030429077018551343, -0.08661476657306495, -0.10341640171731019, 0.22306084198004014, 0.1701200590279377, 0.21685736324641391, 0.05443507012358281, 0.17406892090395307, 0.38287898702994694, 0.3813642187959677, 0.1529499085672718, -0.30435264158735625, -0.6753612015269602, -0.2129092884286258, -0.09445536554432699, 0.19206093056877882, 0.059347537076166676, -0.0014532562714866019, 0.10559154708573154, 0.07546164646327609, 0.45954932827356143, 0.14960429641325051, 0.06591759317270614, 0.00716093995559546, -0.024699740671456614, -0.057386987971587713, 0.03380048020998432, -0.002252151669022132, 0.004919025961402718, -0.02931705591363793, 0.07057892454808576, 0.20092536917463086, 0.05685701698224462, 0.18912923862066947, 0.07014273863286224, 0.18179023690437374, 0.16620969095111532, 0.24689798331414747, 0.3265394230859512, -0.1194828487935012, -0.2956232992808048, -0.45433877800956834, -0.2274625711704342, 0.36538159017725674, -0.0868524190020596, 0.25869927181569463, 0.1357822819126803, 0.042836491743854496, 0.12789392505062216, 0.27299020368093385, 0.12425916870037103, -0.12146346669480879, -0.047903460216557385, 0.008372280711915137, -0.005647213448567266, 0.007451838594636643, 0.016951888934678874, -0.07728150458238958, -0.06514683858027817, 0.0728120769386455, 0.03204964816298381, 0.2288177211547435, 0.026735356601368623, 0.23343783497545914, 0.3093619452685194, 0.07833944703041121, 0.11145581171830264, -0.3838161692068598, -0.39190194587475147, -0.3854940901775508, -0.3656062900462736, -0.01926762650504444, 0.10448956103477791, 0.04830860392657245, -0.10124995963715502, -0.1785007013849253, 0.11445297837477952, 0.1566670203299585, -0.1928293111412168, -0.3000134042154828, 0.01451109512813006, -0.005792992004974884, -0.00301315443780665, -0.0034219820847411118, -0.007218268379065692, -0.19944454367423647, -0.31450816477782, 0.07971981996165531, -0.12657979986400356, 0.020396189014877646, 0.4030979939139802, -0.0270723862121587, 0.055132990295508055, 0.12232786815064016, 0.11280033657568861, -0.361859964165093, -0.2272875420556067, -0.32527060383165385, -0.20260758899700276, 0.07345328267980498, -0.07538291636268975, -0.16914306313357733, 0.08586403752554557, -0.07169377006511377, -0.11080588126277123, -0.040200876552932356, -0.2735198603190896, -0.3340895182025981, -0.1109749175098448, 0.0026848589201222896, -0.001518556682776297, -0.002398818677901673, -0.017362967048970727, -0.26639168898847676, -0.11933434841111147, 0.1750818486593265, 0.03031445313532109, 0.21262588944955585, 0.2582890378152573, 0.22958727628330325, 0.07967062366735059, -0.002167220256762993, -0.04702548189487304, -0.04778957725435993, -0.11259041075524967, -0.3936648029277439, 0.015865323281757483, 0.07425136709380085, -0.03541391561661963, -0.21150481710214153, -0.12158818500518383, -0.08034204731177895, -0.06577971257383299, -0.10636718925966286, -0.02595061043058363, -0.236588376306948, -0.031716262209488554, 0.02156227431075483, -0.002212725324960429, 0.003715207165608168, -0.017233783435196035, -0.23068672272544127, -0.08115661959214526, 0.012287624710526749, -0.17694858395295052, -0.23776889448715238, 0.058455581888178246, -0.014272695567412692, -0.39158059796678873, -0.17350643515356431, -0.01788072516784216, -0.05779237005203541, -0.2752639696175003, -0.3122930402623002, -0.1670070888182351, -0.23762858978414736, -0.1638926303540757, -0.04280068977353565, -0.06245119893290937, -0.04396344746443253, -0.11177828810949113, 0.00838428563842962, 0.006861189904103362, -0.15686530911461058, -0.01598337136663992, -0.0036257016481577977, -0.010973566663323959, 0.023031343030726317, 0.030232169911684675, -0.05061076050160943, -0.15716681908684652, -0.04816296621744397, -0.12820918516478672, -0.20347924601885095, -0.24407962112635032, -0.28747507259251437, -0.14581077967015968, -0.30485655321779054, 0.0018145602644326108, 0.10259656682949156, 0.008605995576765836, -0.16206189415039157, -0.41104448491699147, -0.23720017666684012, 0.1268039299833682, -0.026659446598383717, -0.0067253594864086635, -0.017753487724015492, -0.11408198066054852, -0.052390950443120275, -0.06008646484843157, -0.09012374545297096, -0.026489573788909402, 0.002696449704949279, -0.0001521601933495357, 0.022439920574672957, 0.02646141595191329, -0.06719508545606474, -0.22838487489343368, -0.3064853925038095, -0.2977629070849088, -0.1929420786274505, -0.13926917933030622, -0.35907299728823083, -0.2651233744290049, -0.10569304707894031, 0.21240493547451583, 0.11938312397642716, -0.3618783643818391, 0.02684381955824139, -0.12980824058607662, -0.07921128031084815, 0.036313468779186696, -0.0017384081541256071, -0.0840095225450115, -0.16573097005873502, -0.17252713091708577, -0.22608314606832036, -0.1546597003866932, -0.14227643358433542, -0.000531717131285288, 0.009421072900655006, -0.0023546916624630834, -0.003273430188544064, 0.003930624820236214, -0.01977385775327189, -0.22183653182756313, -0.24621877257465966, -0.2828605085729297, -0.291665593176849, -0.3347770657439647, -0.12316641186129107, -0.18727544032512686, -0.009509627919550883, 0.16567453539402208, -0.1722696663468106, -0.1251459666192554, -0.10719425398902836, -0.14613251131978877, -0.08588086401202949, -0.23381609271584083, -0.22549965742962977, -0.07829542036309775, -0.03972610524177546, -0.07476808279139309, -0.21769457345612786, -0.14577581461629466, -0.07546377650199099, 0.027241212131453148, -0.007287436093906453, -0.0037731672148019623, 0.0204894589765256, 0.005079434981631116, 0.011088192309273348, -0.18102387428615213, -0.12656267392222528, -0.02523417370190928, 0.03434001623793949, 0.05886062791309125, -0.12760392103727766, -0.07487352009337006, 0.07083600313213186, 0.2058452747266046, 0.2165692252389577, -0.25812521780574127, -0.33283743636131313, -0.30517792490234, -0.3677344141407258, -0.2257707855109144, 0.021731760816623525, -0.31750116895028185, 0.06894830444903674, 0.08712921616399504, -0.04760340137561376, -0.0655986228893591, -0.04333972250978703, -0.0005302915706243802, 0.0002610108584191775, -0.006975245201812775, -0.008353365871557772, -0.018701764700296844, -0.01637332498721781, -0.015494677235413425, -0.05819058651858248, 0.12817646261894527, 0.4407614242387973, 0.27943192559295027, 0.09987961653245156, 0.10492098818446546, 0.29682048034210207, 0.10067761384213883, 0.26828296397323126, 0.16138943446763213, -0.054965627857338155, -0.08833677195042375, -0.0814396445099847, -0.11054387450535277, -0.17094349221437796, -0.1383475457690585, 0.03494490982702599, -0.14439103887264268, -0.16906514132990508, -0.11912693019119718, -0.03603786143005607, 0.0048798613371295796, 0.002818448980009198, 0.002094008091720941, 0.005314185724261157, -0.003547078164356798, -0.005294629707731838, 0.009582910097133131, 0.09189201562651635, 0.27153435722815406, 0.3194282922040311, 0.40965113445216944, 0.3832736532363359, 0.3269086144027765, 0.3547068640630381, 0.38933985917677216, 0.2920648418588738, 0.13884142297724877, 0.03722155548303507, 0.156038749684609, -0.19211772611944167, -0.10801494257326766, -0.1588990021901794, -0.19335588215282665, 